{"learner":{"attributes":{"scikit_learn":"{\"_estimator_type\": \"regressor\"}"},"feature_names":["Pixels_per_cm","Food_area","Food_width","Food_length","Aspect_Ratio","Extent","Solidity","Circularity","Estimated_Volume","Mean_R","Mean_G","Mean_B","Edge_Density","Food_type_apple","Food_type_banana","Food_type_cooked rice","Food_type_fried noodle","Food_type_fried rice","Food_type_oat","Food_type_rojak","Food_type_tangerine"],"feature_types":["float","float","float","float","float","float","float","float","float","float","float","float","float","float","float","float","float","float","float","float","float"],"gradient_booster":{"model":{"gbtree_model_param":{"num_parallel_tree":"1","num_trees":"100"},"iteration_indptr":[0,1,2,3,4,5,6,7,8,9,10,11,12,13,14,15,16,17,18,19,20,21,22,23,24,25,26,27,28,29,30,31,32,33,34,35,36,37,38,39,40,41,42,43,44,45,46,47,48,49,50,51,52,53,54,55,56,57,58,59,60,61,62,63,64,65,66,67,68,69,70,71,72,73,74,75,76,77,78,79,80,81,82,83,84,85,86,87,88,89,90,91,92,93,94,95,96,97,98,99,100],"tree_info":[0,0,0,0,0,0,0,0,0,0,0,0,0,0,0,0,0,0,0,0,0,0,0,0,0,0,0,0,0,0,0,0,0,0,0,0,0,0,0,0,0,0,0,0,0,0,0,0,0,0,0,0,0,0,0,0,0,0,0,0,0,0,0,0,0,0,0,0,0,0,0,0,0,0,0,0,0,0,0,0,0,0,0,0,0,0,0,0,0,0,0,0,0,0,0,0,0,0,0,0],"trees":[{"base_weights":[2.252488E-7,-1.8366156E1,1.267679E2,-3.8839068E0,-1.1372539E1,1.02315445E2,2.6809757E1,-1.0185401E1,6.9795204E1,3.7300213E1,1.095279E2,-1.3891507E1,4.886473E0,4.338041E0,7.23224E0,3.793518E0,5.1770577E0,1.1546088E2,6.3563904E1,-1.7527529E1,-5.642417E-2,5.1279206E0,-3.758037E0,6.743923E0,-4.0040514E-1,1.0096986E1,1.2712686E1,5.495949E-1,6.7607903E0,-1.6035503E0,-3.552787E0,-4.460387E-1,8.967705E-1,-2.0507889E0,3.601186E-1,2.661265E-1,9.495949E-1],"categories":[],"categories_nodes":[],"categories_segments":[],"categories_sizes":[],"default_left":[0,0,0,0,0,0,0,0,0,0,0,0,0,0,0,0,0,0,0,0,0,0,0,0,0,0,0,0,0,0,0,0,0,0,0,0,0],"id":0,"left_children":[1,3,5,7,-1,9,-1,11,13,15,17,19,21,-1,-1,23,-1,25,27,29,31,-1,33,35,-1,-1,-1,-1,-1,-1,-1,-1,-1,-1,-1,-1,-1],"loss_changes":[2.446979E6,1.267331E6,4.321985E5,3.712131E5,0E0,4.984025E4,0E0,4.1179336E4,1.0682188E3,6.106709E3,2.074925E4,2.9729078E4,5.874491E4,0E0,0E0,1.4203296E2,0E0,2.37875E3,2.916004E3,1.1999344E4,4.967998E3,0E0,1.5358824E4,1.9671082E1,0E0,0E0,0E0,0E0,0E0,0E0,0E0,0E0,0E0,0E0,0E0,0E0,0E0],"parents":[2147483647,0,0,1,1,2,2,3,3,5,5,7,7,8,8,9,9,10,10,11,11,12,12,15,15,17,17,18,18,19,19,20,20,22,22,23,23],"right_children":[2,4,6,8,-1,10,-1,12,14,16,18,20,22,-1,-1,24,-1,26,28,30,32,-1,34,36,-1,-1,-1,-1,-1,-1,-1,-1,-1,-1,-1,-1,-1],"split_conditions":[2.064278E2,1E0,2.90386E2,1E0,-1.1372539E1,7.616647E1,2.6809757E1,1.7677611E3,1.6626903E2,1.3120137E2,9.60023E1,1E0,4.08E1,4.338041E0,7.23224E0,1.2860141E2,5.1770577E0,2.2186348E2,2.081631E2,2.5841813E0,5.237095E1,5.1279206E0,5.2864483E1,1.2740141E2,-4.0040514E-1,1.0096986E1,1.2712686E1,5.495949E-1,6.7607903E0,-1.6035503E0,-3.552787E0,-4.460387E-1,8.967705E-1,-2.0507889E0,3.601186E-1,2.661265E-1,9.495949E-1],"split_indices":[1,18,1,19,0,11,0,8,1,0,9,13,0,0,0,0,0,1,1,12,1,0,10,0,0,0,0,0,0,0,0,0,0,0,0,0,0],"split_type":[0,0,0,0,0,0,0,0,0,0,0,0,0,0,0,0,0,0,0,0,0,0,0,0,0,0,0,0,0,0,0,0,0,0,0,0,0],"sum_hessian":[1.049E3,9.17E2,1.32E2,7.97E2,1.2E2,1.14E2,1.8E1,7.35E2,6.2E1,1.2E1,1.02E2,5.9E2,1.45E2,7E0,5.5E1,4E0,8E0,8.9E1,1.3E1,4.67E2,1.23E2,2.2E1,1.23E2,3E0,1E0,4.4E1,4.5E1,1E0,1.2E1,4.33E2,3.4E1,8.3E1,4E1,3.7E1,8.6E1,2E0,1E0],"tree_param":{"num_deleted":"0","num_feature":"21","num_nodes":"37","size_leaf_vector":"1"}},{"base_weights":[5.890444E-2,-1.6530708E1,1.145642E2,-3.4826086E0,-1.0244685E1,9.239792E1,2.4269888E1,-9.168587E0,6.2999336E1,3.403114E1,9.886753E1,-1.3278286E1,2.5447197E0,5.7353654E0,7.866254E0,3.5772278E0,4.7168746E0,1.0416823E2,5.7729687E1,-1.7134645E1,-4.7143873E-2,3.9890247E1,-2.773845E0,6.373459E0,-3.8038483E-1,9.1097244E1,1.1469053E1,5.2211535E-1,6.1367183E0,-2.5355964E0,-1.3387634E0,-3.4879324E-1,9.5467865E-1,-3.878418E-1,4.6327605E0,-1.7766418E0,1.4178777E-1,2.483846E-1,9.0211487E-1,7.1528525E0,1.0042367E1],"categories":[],"categories_nodes":[],"categories_segments":[],"categories_sizes":[],"default_left":[0,0,0,0,0,0,0,0,0,0,0,0,0,0,0,0,0,0,0,0,0,0,0,0,0,0,0,0,0,0,0,0,0,0,0,0,0,0,0,0,0],"id":1,"left_children":[1,3,5,7,-1,9,-1,11,13,15,17,19,21,-1,-1,23,-1,25,27,29,31,33,35,37,-1,39,-1,-1,-1,-1,-1,-1,-1,-1,-1,-1,-1,-1,-1,-1,-1],"loss_changes":[1.9964722E6,1.02876E6,3.55331E5,3.022335E5,0E0,4.0060625E4,0E0,3.5463484E4,1.0594844E3,5.032454E3,1.6446562E4,2.780729E4,3.8246574E4,0E0,0E0,1.27439644E2,0E0,1.9303125E3,2.353582E3,1.2660414E4,4.126624E3,6.9417812E3,1.0645947E4,1.8786804E1,0E0,1.029625E3,0E0,0E0,0E0,0E0,0E0,0E0,0E0,0E0,0E0,0E0,0E0,0E0,0E0,0E0,0E0],"parents":[2147483647,0,0,1,1,2,2,3,3,5,5,7,7,8,8,9,9,10,10,11,11,12,12,15,15,17,17,18,18,19,19,20,20,21,21,22,22,23,23,25,25],"right_children":[2,4,6,8,-1,10,-1,12,14,16,18,20,22,-1,-1,24,-1,26,28,30,32,34,36,38,-1,40,-1,-1,-1,-1,-1,-1,-1,-1,-1,-1,-1,-1,-1,-1,-1],"split_conditions":[2.064278E2,1E0,2.90386E2,1E0,-1.0244685E1,7.616647E1,2.4269888E1,1.487438E1,1.523467E2,1.3120137E2,9.60023E1,1E0,4.08E1,5.7353654E0,7.866254E0,1.2860141E2,4.7168746E0,2.2186348E2,2.081631E2,6.8507224E-1,5.3277462E1,1.4584519E1,5.2864483E1,1.2740141E2,-3.8038483E-1,1.2395653E2,1.1469053E1,5.2211535E-1,6.1367183E0,-2.5355964E0,-1.3387634E0,-3.4879324E-1,9.5467865E-1,-3.878418E-1,4.6327605E0,-1.7766418E0,1.4178777E-1,2.483846E-1,9.0211487E-1,7.1528525E0,1.0042367E1],"split_indices":[1,18,1,19,0,11,0,2,11,0,9,13,0,0,0,0,0,1,1,5,1,3,10,0,0,10,0,0,0,0,0,0,0,0,0,0,0,0,0,0,0],"split_type":[0,0,0,0,0,0,0,0,0,0,0,0,0,0,0,0,0,0,0,0,0,0,0,0,0,0,0,0,0,0,0,0,0,0,0,0,0,0,0,0,0],"sum_hessian":[1.049E3,9.17E2,1.32E2,7.97E2,1.2E2,1.14E2,1.8E1,7.35E2,6.2E1,1.2E1,1.02E2,5.44E2,1.91E2,4.9E1,1.3E1,4E0,8E0,8.9E1,1.3E1,4.21E2,1.23E2,2.3E1,1.68E2,3E0,1E0,4.4E1,4.5E1,1E0,1.2E1,1.3E2,2.91E2,9.1E1,3.2E1,3E0,2E1,3.6E1,1.32E2,2E0,1E0,1.7E1,2.7E1],"tree_param":{"num_deleted":"0","num_feature":"21","num_nodes":"41","size_leaf_vector":"1"}},{"base_weights":[1.1756494E-1,-1.7471056E1,8.8767586E1,-5.4893136E0,-9.2286825E0,7.225089E1,2.1970636E1,-8.90233E0,5.1389675E0,2.205611E1,8.076536E1,-1.1696485E1,1.973698E0,5.6225376E0,3.8021137E1,8.865485E1,3.9178436E1,-1.491176E1,-3.753859E-2,3.4272694E1,-5.2498274E0,8.171799E0,-9.064026E-2,1.8913586E0,4.521072E0,6.935174E1,9.775302E1,8.70557E0,5.485026E0,-1.7397225E0,-2.9624242E-1,-3.675004E-1,7.4157447E-1,5.292532E-1,4.0618525E0,-2.063467E0,-1.0284132E-1,1.2543391E0,5.1308596E-1,1.6935273E-1,-3.6136553E-1,7.1216516E0,-7.550049E-2,4.505655E0,9.936778E0,1.3480027E0,-6.3250735E-2],"categories":[],"categories_nodes":[],"categories_segments":[],"categories_sizes":[],"default_left":[0,0,0,0,0,0,0,0,0,0,0,0,0,0,0,0,0,0,0,0,0,0,0,0,0,0,0,0,0,0,0,0,0,0,0,0,0,0,0,0,0,0,0,0,0,0,0],"id":2,"left_children":[1,3,5,7,-1,9,-1,11,-1,13,15,17,19,21,23,25,27,29,31,33,35,37,39,-1,-1,41,43,45,-1,-1,-1,-1,-1,-1,-1,-1,-1,-1,-1,-1,-1,-1,-1,-1,-1,-1,-1],"loss_changes":[1.638744E6,7.856567E5,3.604315E5,1.4741312E5,0E0,6.4890188E4,0E0,2.1751434E4,0E0,6.082924E3,4.0163938E4,2.1329383E4,3.447688E4,1.9007764E2,7.9340625E2,1.27148125E4,1.05065E4,1.31945E4,3.3890242E3,4.750412E3,7.837221E3,5.52854E1,3.7548065E1,0E0,0E0,5.1524062E3,1.7345625E3,4.0978442E2,0E0,0E0,0E0,0E0,0E0,0E0,0E0,0E0,0E0,0E0,0E0,0E0,0E0,0E0,0E0,0E0,0E0,0E0,0E0],"parents":[2147483647,0,0,1,1,2,2,3,3,5,5,7,7,9,9,10,10,11,11,12,12,13,13,14,14,15,15,16,16,17,17,18,18,19,19,20,20,21,21,22,22,25,25,26,26,27,27],"right_children":[2,4,6,8,-1,10,-1,12,-1,14,16,18,20,22,24,26,28,30,32,34,36,38,40,-1,-1,42,44,46,-1,-1,-1,-1,-1,-1,-1,-1,-1,-1,-1,-1,-1,-1,-1,-1,-1,-1,-1],"split_conditions":[1.9861983E2,1E0,2.90386E2,1E0,-9.2286825E0,7.616647E1,2.1970636E1,1.5168432E1,5.1389675E0,7.080731E1,9.60023E1,1E0,4.08E1,1.0850878E0,2.090655E2,2.1090067E2,1.700583E1,1.4983635E1,5.237095E1,1.511844E2,5.2864483E1,1.2860141E2,1.2740141E2,1.8913586E0,4.521072E0,3.4000587E1,8.8958544E-1,5.1317817E-1,5.485026E0,-1.7397225E0,-2.9624242E-1,-3.675004E-1,7.4157447E-1,5.292532E-1,4.0618525E0,-2.063467E0,-1.0284132E-1,1.2543391E0,5.1308596E-1,1.6935273E-1,-3.6136553E-1,7.1216516E0,-7.550049E-2,4.505655E0,9.936778E0,1.3480027E0,-6.3250735E-2],"split_indices":[1,18,1,19,0,11,0,3,0,11,9,13,0,12,1,1,2,2,1,1,10,0,0,0,0,0,6,7,0,0,0,0,0,0,0,0,0,0,0,0,0,0,0,0,0,0,0],"split_type":[0,0,0,0,0,0,0,0,0,0,0,0,0,0,0,0,0,0,0,0,0,0,0,0,0,0,0,0,0,0,0,0,0,0,0,0,0,0,0,0,0,0,0,0,0,0,0],"sum_hessian":[1.049E3,8.76E2,1.73E2,7.56E2,1.2E2,1.55E2,1.8E1,7.14E2,4.2E1,2.3E1,1.32E2,5.68E2,1.46E2,1.2E1,1.1E1,1.1E2,2.2E1,4.45E2,1.23E2,2.6E1,1.2E2,8E0,4E0,4E0,7E0,3.8E1,7.2E1,8E0,1.4E1,3.68E2,7.7E1,8.3E1,4E1,5E0,2.1E1,2.5E1,9.5E1,2E0,6E0,3E0,1E0,3.7E1,1E0,3E0,6.9E1,5E0,3E0],"tree_param":{"num_deleted":"0","num_feature":"21","num_nodes":"47","size_leaf_vector":"1"}},{"base_weights":[1.5808271E-1,-1.66686E1,7.592137E1,-5.7780156E0,-8.313441E0,6.1873814E1,1.9983224E2,-8.5052E0,4.4826946E1,3.643689E1,7.722335E1,1.1413965E1,2.150743E1,-2.0339783E1,-6.4396973E0,3.2153943E0,4.8204665E0,5.9205494E0,1.1184221E1,3.1312227E1,8.215783E1,-2.2023333E1,1.0828766E0,-5.0744452E0,-2.833378E1,2.635279E0,8.183288E0,9.141703E0,4.125478E0,8.605762E0,5.063941E0,-2.572521E0,-1.6159089E0,1.0503069E0,-7.697706E-1,-3.654948E0,-1.1618792E0,5.035032E-1,1.9412432E0,2.2053528E-1,1.3030819E0],"categories":[],"categories_nodes":[],"categories_segments":[],"categories_sizes":[],"default_left":[0,0,0,0,0,0,0,0,0,0,0,0,0,0,0,0,0,0,0,0,0,0,0,0,0,0,0,0,0,0,0,0,0,0,0,0,0,0,0,0,0],"id":3,"left_children":[1,3,5,7,-1,9,11,13,15,17,19,-1,-1,21,23,-1,-1,-1,25,27,29,31,-1,33,35,-1,37,39,-1,-1,-1,-1,-1,-1,-1,-1,-1,-1,-1,-1,-1],"loss_changes":[1.3398525E6,6.2203194E5,3.2009888E5,1.0250795E5,0E0,6.4733188E4,2.68E2,1.705341E4,7.664844E1,3.7860695E4,2.1668E4,0E0,0E0,5.6957656E3,1.7790787E4,0E0,0E0,0E0,1.2865029E3,2.268039E3,7.442E3,1.7334688E3,0E0,2.3209809E4,4.3817246E3,0E0,9.274723E2,1.0614377E2,0E0,0E0,0E0,0E0,0E0,0E0,0E0,0E0,0E0,0E0,0E0,0E0,0E0],"parents":[2147483647,0,0,1,1,2,2,3,3,5,5,6,6,7,7,8,8,9,9,10,10,13,13,14,14,18,18,19,19,20,20,21,21,23,23,24,24,26,26,27,27],"right_children":[2,4,6,8,-1,10,12,14,16,18,20,-1,-1,22,24,-1,-1,-1,26,28,30,32,-1,34,36,-1,38,40,-1,-1,-1,-1,-1,-1,-1,-1,-1,-1,-1,-1,-1],"split_conditions":[1.9593303E2,1E0,2.0503214E1,1E0,-8.313441E0,2.081631E2,4.21348E-1,7.387162E0,8.699135E-1,1.2200016E2,7.616647E1,1.1413965E1,2.150743E1,6.650967E1,2.5841813E0,3.2153943E0,4.8204665E0,5.9205494E0,1.556772E1,6.763291E-1,9.60023E1,7.2065115E0,1.0828766E0,4.08E1,1.1152081E2,2.635279E0,1.217051E2,1.2740141E2,4.125478E0,8.605762E0,5.063941E0,-2.572521E0,-1.6159089E0,1.0503069E0,-7.697706E-1,-3.654948E0,-1.1618792E0,5.035032E-1,1.9412432E0,2.2053528E-1,1.3030819E0],"split_indices":[1,18,2,19,0,1,7,2,6,0,11,0,0,1,12,0,0,0,3,5,9,2,0,0,1,0,11,0,0,0,0,0,0,0,0,0,0,0,0,0,0],"split_type":[0,0,0,0,0,0,0,0,0,0,0,0,0,0,0,0,0,0,0,0,0,0,0,0,0,0,0,0,0,0,0,0,0,0,0,0,0,0,0,0,0],"sum_hessian":[1.049E3,8.59E2,1.9E2,7.39E2,1.2E2,1.72E2,1.8E1,7.02E2,3.7E1,6.6E1,1.06E2,4E0,1.4E1,1.03E2,5.99E2,1E1,2.7E1,3.4E1,3.2E1,1.1E1,9.5E1,9.8E1,5E0,5.65E2,3.4E1,4E0,2.8E1,4E0,7E0,8.3E1,1.2E1,5.8E1,4E1,8.1E1,4.84E2,2.2E1,1.2E1,2.3E1,5E0,2E0,2E0],"tree_param":{"num_deleted":"0","num_feature":"21","num_nodes":"41","size_leaf_vector":"1"}},{"base_weights":[1.9496357E-1,-1.5010946E1,6.866034E1,-5.1996784E0,-7.488968E0,5.4433525E1,1.7021129E2,-7.665547E0,4.055572E1,3.3634964E1,7.147542E1,1.2518649E1,2.0794867E1,-1.8335663E1,-5.803284E0,2.923086E0,4.355636E0,2.448808E1,7.3700156E0,7.4619417E0,4.429712E1,-1.9863306E1,9.9263734E-1,-4.566501E0,-2.5638027E1,4.3309402E0,1.3851369E1,2.2354615E0,4.912744E0,-2.4696448E0,-1.6020974E0,2.600238E0,-5.733864E-1,-3.6599317E0,-1.448119E0,3.0561888E-1,1.793156E0],"categories":[],"categories_nodes":[],"categories_segments":[],"categories_sizes":[],"default_left":[0,0,0,0,0,0,0,0,0,0,0,0,0,0,0,0,0,0,0,0,0,0,0,0,0,0,0,0,0,0,0,0,0,0,0,0,0],"id":4,"left_children":[1,3,5,7,-1,9,11,13,15,17,19,-1,-1,21,23,-1,-1,25,-1,-1,27,29,-1,31,33,-1,35,-1,-1,-1,-1,-1,-1,-1,-1,-1,-1],"loss_changes":[1.094163E6,5.048488E5,2.6668138E5,8.380272E4,0E0,5.7497438E4,1.3047375E4,1.3862594E4,1.8117188E1,2.6780023E4,4.5558438E3,0E0,0E0,4.687297E3,1.4601689E4,0E0,0E0,1.2412906E4,0E0,0E0,1.7364844E2,1.4428242E3,0E0,2.034679E4,3.7502637E3,0E0,1.8391943E3,0E0,0E0,0E0,0E0,0E0,0E0,0E0,0E0,0E0,0E0],"parents":[2147483647,0,0,1,1,2,2,3,3,5,5,6,6,7,7,8,8,9,9,10,10,13,13,14,14,17,17,20,20,21,21,23,23,24,24,26,26],"right_children":[2,4,6,8,-1,10,12,14,16,18,20,-1,-1,22,24,-1,-1,26,-1,-1,28,30,-1,32,34,-1,36,-1,-1,-1,-1,-1,-1,-1,-1,-1,-1],"split_conditions":[1.9593303E2,1E0,2.746733E2,1E0,-7.488968E0,1.22123E2,5.0157354E3,7.387162E0,8.699135E-1,2.296444E2,3.64022E1,1.2518649E1,2.0794867E1,6.650967E1,2.5841813E0,2.923086E0,4.355636E0,1.2300016E2,7.3700156E0,7.4619417E0,1.713223E1,7.0997562E0,9.9263734E-1,3.460058E1,1.0134388E2,4.3309402E0,4.9127674E1,2.2354615E0,4.912744E0,-2.4696448E0,-1.6020974E0,2.600238E0,-5.733864E-1,-3.6599317E0,-1.448119E0,3.0561888E-1,1.793156E0],"split_indices":[1,18,1,19,0,10,8,2,6,1,0,0,0,1,12,0,0,0,0,0,2,2,0,0,1,0,10,0,0,0,0,0,0,0,0,0,0],"split_type":[0,0,0,0,0,0,0,0,0,0,0,0,0,0,0,0,0,0,0,0,0,0,0,0,0,0,0,0,0,0,0,0,0,0,0,0,0],"sum_hessian":[1.049E3,8.59E2,1.9E2,7.39E2,1.2E2,1.68E2,2.2E1,7.02E2,3.7E1,7.7E1,9.1E1,1.2E1,1E1,1.03E2,5.99E2,1E1,2.7E1,6.4E1,1.3E1,8E1,1.1E1,9.8E1,5E0,5.65E2,3.4E1,2.2E1,4.2E1,3E0,8E0,4.1E1,5.7E1,2E1,5.45E2,1.6E1,1.8E1,1.2E1,3E1],"tree_param":{"num_deleted":"0","num_feature":"21","num_nodes":"37","size_leaf_vector":"1"}},{"base_weights":[2.2818081E-1,-1.4223624E1,5.915135E1,-5.3063035E0,-6.746261E1,4.6960224E1,1.5463858E2,-6.956133E0,3.925281E1,-7.2805305E0,-5.9234138E0,-3.1474957E-1,5.2692432E1,9.884852E0,1.7780338E1,-1.8497156E1,-5.47675E0,3.028806E0,4.8724017E0,-1.0088537E1,5.292754E0,3.6601505E1,6.3876522E1,-2.1647953E1,-1.5766194E1,-1.3243428E1,-2.251722E0,-1.3092041E1,5.467995E-1,7.736903E0,-6.540955E-1,4.4783936E1,1.2281085E1,6.595876E1,3.6419454E0,-2.1997647E0,-5.0540394E-1,-7.111682E-1,-1.6421108E0,-1.9318556E0,7.7852975E-3,-2.912471E-1,2.9714427E0,-1.4311707E0,-2.887024E-1,3.9975283E-1,1.2346585E0,-2.944743E-1,1.8545838E-1,3.5262868E0,5.0590625E0,-2.4783325E-1,1.4163271E0,3.4681766E0,6.8233542E0],"categories":[],"categories_nodes":[],"categories_segments":[],"categories_sizes":[],"default_left":[0,0,0,0,0,0,0,0,0,0,0,0,0,0,0,0,0,0,0,0,0,0,0,0,0,0,0,0,0,0,0,0,0,0,0,0,0,0,0,0,0,0,0,0,0,0,0,0,0,0,0,0,0,0,0],"id":5,"left_children":[1,3,5,7,9,11,13,15,17,-1,-1,19,21,-1,-1,23,25,-1,-1,27,29,31,33,35,37,39,41,43,-1,45,47,49,51,53,-1,-1,-1,-1,-1,-1,-1,-1,-1,-1,-1,-1,-1,-1,-1,-1,-1,-1,-1,-1,-1],"loss_changes":[8.949648E5,4.0033028E5,2.3370606E5,5.3497863E4,1.0068125E3,5.014972E4,1.21488125E4,1.1833141E4,7.318281E2,0E0,0E0,1.2043336E3,2.7355812E4,0E0,0E0,3.3846875E2,1.5524838E4,0E0,0E0,4.4538013E2,2.085505E2,1.3380016E4,3.0863438E3,8.611621E1,1.4394336E2,1.4730486E4,9.380048E3,4.5808594E1,0E0,1.23017456E2,3.4193768E1,1.0908984E3,5.6292065E2,3.8945938E3,0E0,0E0,0E0,0E0,0E0,0E0,0E0,0E0,0E0,0E0,0E0,0E0,0E0,0E0,0E0,0E0,0E0,0E0,0E0,0E0,0E0],"parents":[2147483647,0,0,1,1,2,2,3,3,4,4,5,5,6,6,7,7,8,8,11,11,12,12,15,15,16,16,19,19,20,20,21,21,22,22,23,23,24,24,25,25,26,26,27,27,29,29,30,30,31,31,32,32,33,33],"right_children":[2,4,6,8,10,12,14,16,18,-1,-1,20,22,-1,-1,24,26,-1,-1,28,30,32,34,36,38,40,42,44,-1,46,48,50,52,54,-1,-1,-1,-1,-1,-1,-1,-1,-1,-1,-1,-1,-1,-1,-1,-1,-1,-1,-1,-1,-1],"split_conditions":[2.250857E3,1E0,2.746733E2,1E0,1.0658945E2,7.154394E1,4.682501E3,2.0741469E2,1.211261E2,-7.2805305E0,-5.9234138E0,1.9593303E2,2.090655E2,9.884852E0,1.7780338E1,1.8984575E2,6.844099E-1,3.028806E0,4.8724017E0,4.9127674E1,1.0850878E0,4.040792E1,9.369192E-1,9.816042E-1,1.3107732E2,1.487438E1,1.6942757E2,1.3440134E2,5.467995E-1,3.4551266E1,2.081631E2,4.803289E1,8.850024E-1,7.616647E1,3.6419454E0,-2.1997647E0,-5.0540394E-1,-7.111682E-1,-1.6421108E0,-1.9318556E0,7.7852975E-3,-2.912471E-1,2.9714427E0,-1.4311707E0,-2.887024E-1,3.9975283E-1,1.2346585E0,-2.944743E-1,1.8545838E-1,3.5262868E0,5.0590625E0,-2.4783325E-1,1.4163271E0,3.4681766E0,6.8233542E0],"split_indices":[8,18,1,19,1,11,8,8,10,0,0,1,1,0,0,8,5,0,0,10,12,0,6,6,11,2,9,0,0,9,1,9,6,11,0,0,0,0,0,0,0,0,0,0,0,0,0,0,0,0,0,0,0,0,0],"split_type":[0,0,0,0,0,0,0,0,0,0,0,0,0,0,0,0,0,0,0,0,0,0,0,0,0,0,0,0,0,0,0,0,0,0,0,0,0,0,0,0,0,0,0,0,0,0,0,0,0,0,0,0,0,0,0],"sum_hessian":[1.049E3,8.43E2,2.06E2,7.23E2,1.2E2,1.84E2,2.2E1,6.98E2,2.5E1,6.8E1,5.2E1,2E1,1.64E2,8E0,1.4E1,7.8E1,6.2E2,1.5E1,1E1,7E0,1.3E1,6.9E1,9.5E1,3.3E1,4.5E1,1.81E2,4.39E2,6E0,1E0,9E0,4E0,5.1E1,1.8E1,8.7E1,8E0,3.2E1,1E0,4E0,4.1E1,1.24E2,5.7E1,4.31E2,8E0,5E0,1E0,6E0,3E0,2E0,2E0,2.2E1,2.9E1,2E0,1.6E1,7E0,8E1],"tree_param":{"num_deleted":"0","num_feature":"21","num_nodes":"55","size_leaf_vector":"1"}},{"base_weights":[2.4545716E-1,-1.2215247E1,5.634996E1,-4.2503123E0,-6.0825466E1,4.567316E1,1.5059927E2,-6.2486343E0,3.283049E1,-6.563029E0,-5.3422484E0,2.6893372E1,5.7005615E1,7.453313E0,1.6020336E1,-7.131658E0,1.2490135E1,2.1058357E0,3.4809414E1,4.349618E1,8.469378E0,2.4175526E1,6.0515568E1,-1.3979771E1,-4.5595436E0,6.9025356E-1,3.8380852E0,2.368481E1,3.7649066E0,3.464199E0,5.0833443E1,2.2737854E0,5.717249E0,4.5588303E0,3.020789E0,5.3715908E1,7.3040147E0,-1.9835322E0,-3.7853032E-1,-1.6458676E0,-2.4370126E-1,-1.6894335E0,6.513436E-1,2.6628206E0,8.9219564E-1,5.234993E0,1.3284829E0,3.0044314E-1,1.5615643E0,1.7309469E-1,6.5212405E-1,5.9282084E0,3.682684E0],"categories":[],"categories_nodes":[],"categories_segments":[],"categories_sizes":[],"default_left":[0,0,0,0,0,0,0,0,0,0,0,0,0,0,0,0,0,0,0,0,0,0,0,0,0,0,0,0,0,0,0,0,0,0,0,0,0,0,0,0,0,0,0,0,0,0,0,0,0,0,0,0,0],"id":6,"left_children":[1,3,5,7,9,11,13,15,17,-1,-1,19,21,-1,-1,23,25,-1,27,29,31,33,35,37,39,41,-1,43,-1,-1,45,-1,47,49,-1,51,-1,-1,-1,-1,-1,-1,-1,-1,-1,-1,-1,-1,-1,-1,-1,-1,-1],"loss_changes":[7.3474506E5,3.3271388E5,1.8532138E5,5.5038684E4,7.9784375E2,3.5284938E4,1.9399375E3,1.1721459E4,1.5222266E2,0E0,0E0,2.012625E4,1.0866844E4,0E0,0E0,1.1772953E4,9.749743E3,0E0,8.758203E1,5.128203E2,1.1658689E3,1.2823076E3,4.2522188E3,1.0848961E4,1.2335467E4,2.4652004E3,0E0,1.5350049E2,0E0,0E0,2.725547E2,0E0,7.3180743E2,1.0909943E1,0E0,4.0213281E3,0E0,0E0,0E0,0E0,0E0,0E0,0E0,0E0,0E0,0E0,0E0,0E0,0E0,0E0,0E0,0E0,0E0],"parents":[2147483647,0,0,1,1,2,2,3,3,4,4,5,5,6,6,7,7,8,8,11,11,12,12,15,15,16,16,18,18,19,19,20,20,21,21,22,22,23,23,24,24,25,25,27,27,30,30,32,32,33,33,35,35],"right_children":[2,4,6,8,10,12,14,16,18,-1,-1,20,22,-1,-1,24,26,-1,28,30,32,34,36,38,40,42,-1,44,-1,-1,46,-1,48,50,-1,52,-1,-1,-1,-1,-1,-1,-1,-1,-1,-1,-1,-1,-1,-1,-1,-1,-1],"split_conditions":[1.9593303E2,1E0,2.0503214E1,1E0,1.0658945E2,2.081631E2,9.15095E-1,1.6647394E1,1.6626903E2,-6.563029E0,-5.3422484E0,1.2200016E2,7.616647E1,7.453313E0,1.6020336E1,9.191556E-1,1.0093645E2,2.1058357E0,2.4873304E0,1.2395653E2,1.556772E1,1.2860141E2,1.802292E1,1.487438E1,4.5581833E1,4.766611E1,3.8380852E0,2.4471042E0,3.7649066E0,3.464199E0,4.040792E1,2.2737854E0,1.217051E2,1.2740141E2,3.020789E0,3.32006E1,7.3040147E0,-1.9835322E0,-3.7853032E-1,-1.6458676E0,-2.4370126E-1,-1.6894335E0,6.513436E-1,2.6628206E0,8.9219564E-1,5.234993E0,1.3284829E0,3.0044314E-1,1.5615643E0,1.7309469E-1,6.5212405E-1,5.9282084E0,3.682684E0],"split_indices":[1,18,2,19,1,1,6,3,1,0,0,0,11,0,0,6,9,0,12,10,3,0,3,2,1,10,0,12,0,0,0,0,11,0,0,0,0,0,0,0,0,0,0,0,0,0,0,0,0,0,0,0,0],"split_type":[0,0,0,0,0,0,0,0,0,0,0,0,0,0,0,0,0,0,0,0,0,0,0,0,0,0,0,0,0,0,0,0,0,0,0,0,0,0,0,0,0,0,0,0,0,0,0,0,0,0,0,0,0],"sum_hessian":[1.049E3,8.59E2,1.9E2,7.39E2,1.2E2,1.72E2,1.8E1,7.02E2,3.7E1,6.8E1,5.2E1,6.6E1,1.06E2,3E0,1.5E1,6.71E2,3.1E1,7E0,3E1,3.4E1,3.2E1,1.1E1,9.5E1,1.82E2,4.89E2,2.2E1,9E0,8E0,2.2E1,1.8E1,1.6E1,4E0,2.8E1,3E0,8E0,6.5E1,3E1,1.15E2,6.7E1,7.3E1,4.16E2,5E0,1.7E1,6E0,2E0,1.5E1,1E0,2.3E1,5E0,2E0,1E0,4.7E1,1.8E1],"tree_param":{"num_deleted":"0","num_feature":"21","num_nodes":"53","size_leaf_vector":"1"}},{"base_weights":[2.727833E-1,-1.0998296E1,5.1020714E1,-3.8145072E0,-5.4841312E1,4.130772E1,1.3677481E2,-5.6258373E0,2.9795486E1,-5.953718E0,-4.852424E0,2.4415426E1,5.149908E1,8.040754E0,1.5116259E1,-2.2301802E1,-4.6393886E0,2.099367E0,3.2189217E1,3.9433067E1,7.7477646E0,2.2078478E1,5.464021E1,-2.6203257E1,-6.3854804E0,-7.3554244E0,5.691476E0,3.4885724E0,2.108724E1,3.1360116E0,4.6136185E1,2.0918825E0,5.2097282E0,6.5820527E0,2.9003932E0,5.734465E1,3.2962253E0,-4.1844525E0,-2.2336233E0,-9.817812E-1,-3.0330124E-1,-1.0182489E0,1.9146504E-1,2.6676803E0,-1.0933592E-1,8.327159E-1,2.3952742E0,2.590599E0,5.036809E0,2.7165043E-1,1.4314336E0,1.6155498E-1,9.3545383E-1,5.1243606E0,6.771662E0],"categories":[],"categories_nodes":[],"categories_segments":[],"categories_sizes":[],"default_left":[0,0,0,0,0,0,0,0,0,0,0,0,0,0,0,0,0,0,0,0,0,0,0,0,0,0,0,0,0,0,0,0,0,0,0,0,0,0,0,0,0,0,0,0,0,0,0,0,0,0,0,0,0,0,0],"id":7,"left_children":[1,3,5,7,9,11,13,15,17,-1,-1,19,21,-1,-1,23,25,-1,27,29,31,33,35,37,39,41,43,-1,45,-1,47,-1,49,51,-1,53,-1,-1,-1,-1,-1,-1,-1,-1,-1,-1,-1,-1,-1,-1,-1,-1,-1,-1,-1],"loss_changes":[6.0114425E5,2.7065553E5,1.5343962E5,4.5217938E4,7.0034375E2,2.85255E4,3.2544062E3,1.1460871E4,1.24859375E2,0E0,0E0,1.6465176E4,8.681906E3,0E0,0E0,2.254455E3,1.8701096E4,0E0,1.0258008E2,4.4715234E2,9.941633E2,1.0969326E3,3.7379375E3,9.403906E2,7.378351E1,1.3830635E4,1.9820262E4,0E0,9.305371E1,0E0,1.5057422E2,0E0,6.1940985E2,5.3735046E1,0E0,1.8455E3,0E0,0E0,0E0,0E0,0E0,0E0,0E0,0E0,0E0,0E0,0E0,0E0,0E0,0E0,0E0,0E0,0E0,0E0,0E0],"parents":[2147483647,0,0,1,1,2,2,3,3,4,4,5,5,6,6,7,7,8,8,11,11,12,12,15,15,16,16,18,18,19,19,20,20,21,21,22,22,23,23,24,24,25,25,26,26,28,28,30,30,32,32,33,33,35,35],"right_children":[2,4,6,8,10,12,14,16,18,-1,-1,20,22,-1,-1,24,26,-1,28,30,32,34,36,38,40,42,44,-1,46,-1,48,-1,50,52,-1,54,-1,-1,-1,-1,-1,-1,-1,-1,-1,-1,-1,-1,-1,-1,-1,-1,-1,-1,-1],"split_conditions":[1.9593303E2,1E0,2.0503214E1,1E0,7.766815E2,2.081631E2,3.0271164E2,6.1831318E1,8.699135E-1,-5.953718E0,-4.852424E0,1.2200016E2,7.616647E1,8.040754E0,1.5116259E1,1.8602266E2,1.4853532E1,2.099367E0,3.068876E1,1.2395653E2,1.556772E1,6.763291E-1,9.60023E1,1.511844E2,1.3080551E2,1E0,4.08E1,3.4885724E0,9.233717E-1,3.1360116E0,2.143604E0,2.0918825E0,1.217051E2,1.2740141E2,2.9003932E0,1.802292E1,3.2962253E0,-4.1844525E0,-2.2336233E0,-9.817812E-1,-3.0330124E-1,-1.0182489E0,1.9146504E-1,2.6676803E0,-1.0933592E-1,8.327159E-1,2.3952742E0,2.590599E0,5.036809E0,2.7165043E-1,1.4314336E0,1.6155498E-1,9.3545383E-1,5.1243606E0,6.771662E0],"split_indices":[1,18,2,19,8,1,1,11,6,0,0,0,11,0,0,1,3,0,0,10,3,5,9,1,0,13,0,0,4,0,12,0,11,0,0,3,0,0,0,0,0,0,0,0,0,0,0,0,0,0,0,0,0,0,0],"split_type":[0,0,0,0,0,0,0,0,0,0,0,0,0,0,0,0,0,0,0,0,0,0,0,0,0,0,0,0,0,0,0,0,0,0,0,0,0,0,0,0,0,0,0,0,0,0,0,0,0,0,0,0,0,0,0],"sum_hessian":[1.049E3,8.59E2,1.9E2,7.39E2,1.2E2,1.72E2,1.8E1,7.02E2,3.7E1,6.4E1,5.6E1,6.6E1,1.06E2,5E0,1.3E1,3.8E1,6.64E2,1E1,2.7E1,3.4E1,3.2E1,1.1E1,9.5E1,3E1,8E0,5.26E2,1.38E2,2E1,7E0,1.8E1,1.6E1,4E0,2.8E1,4E0,7E0,8.3E1,1.2E1,4E0,2.6E1,3E0,5E0,4.03E2,1.23E2,3.3E1,1.05E2,2E0,5E0,4E0,1.2E1,2.3E1,5E0,2E0,2E0,5.6E1,2.7E1],"tree_param":{"num_deleted":"0","num_feature":"21","num_nodes":"55","size_leaf_vector":"1"}},{"base_weights":[2.921169E-1,-9.907724E0,4.6216576E1,-3.4292135E0,-4.9446487E1,3.736419E1,1.24387405E2,-5.071749E0,2.7047935E1,-5.2364984E0,-4.1405444E0,2.2191172E1,4.6515854E1,8.494183E0,1.4535312E2,-2.0269138E1,-4.172847E0,1.7168165E0,2.872504E1,3.5797283E1,7.0879865E0,2.0203747E1,4.9320328E1,4.119144E0,1.5165015E1,-2.4679174E1,-8.289961E0,-6.621451E0,5.14073E0,2.0872458E1,3.2000336E1,3.7560753E1,1.7704309E0,1.5491891E1,3.7790613E0,6.1432467E0,2.646609E0,4.3692513E1,5.971115E1,-3.849696E0,-2.0772169E0,-1.1828278E0,-2.780263E-1,-9.16676E-1,1.7247272E-1,2.4087584E0,-9.850602E-2,2.2715347E0,7.7720135E-1,2.275182E0,3.7498958E0,1.046106E0,3.8115375E0,-2.273051E-2,2.0015562E0,8.351979E-1,6.8479635E-2,1.507843E-1,8.730901E-1,2.5184886E0,4.7338934E0,6.1952147E0,2.9096391E0],"categories":[],"categories_nodes":[],"categories_segments":[],"categories_sizes":[],"default_left":[0,0,0,0,0,0,0,0,0,0,0,0,0,0,0,0,0,0,0,0,0,0,0,0,0,0,0,0,0,0,0,0,0,0,0,0,0,0,0,0,0,0,0,0,0,0,0,0,0,0,0,0,0,0,0,0,0,0,0,0,0,0,0],"id":8,"left_children":[1,3,5,7,9,11,13,15,17,-1,-1,19,21,-1,23,25,27,-1,29,31,33,35,37,-1,-1,39,41,43,45,47,49,51,-1,53,55,57,-1,59,61,-1,-1,-1,-1,-1,-1,-1,-1,-1,-1,-1,-1,-1,-1,-1,-1,-1,-1,-1,-1,-1,-1,-1,-1],"loss_changes":[4.923012E5,2.201214E5,1.2752403E5,3.718143E4,6.7140625E2,2.2990281E4,3.3665312E3,9.51908E3,1.3648047E2,0E0,0E0,1.3514477E4,6.8992344E3,0E0,9.683125E2,1.8557256E3,1.5199538E4,0E0,1.2938086E2,4.5173438E2,8.591156E2,8.940327E2,3.0049375E3,0E0,0E0,7.1194727E2,2.0105505E2,1.1211186E4,1.6156686E4,1.1316748E2,1.6391211E2,6.7203125E1,0E0,6.445261E2,3.4802603E2,4.680928E1,0E0,3.261875E3,3.242578E2,0E0,0E0,0E0,0E0,0E0,0E0,0E0,0E0,0E0,0E0,0E0,0E0,0E0,0E0,0E0,0E0,0E0,0E0,0E0,0E0,0E0,0E0,0E0,0E0],"parents":[2147483647,0,0,1,1,2,2,3,3,4,4,5,5,6,6,7,7,8,8,11,11,12,12,14,14,15,15,16,16,18,18,19,19,20,20,21,21,22,22,25,25,26,26,27,27,28,28,29,29,30,30,31,31,33,33,34,34,35,35,37,37,38,38],"right_children":[2,4,6,8,10,12,14,16,18,-1,-1,20,22,-1,24,26,28,-1,30,32,34,36,38,-1,-1,40,42,44,46,48,50,52,-1,54,56,58,-1,60,62,-1,-1,-1,-1,-1,-1,-1,-1,-1,-1,-1,-1,-1,-1,-1,-1,-1,-1,-1,-1,-1,-1,-1,-1],"split_conditions":[1.9593303E2,1E0,2.90386E2,1E0,9.715283E2,2.081631E2,5.0157354E3,6.1831318E1,1.6626903E2,-5.2364984E0,-4.1405444E0,1.2200016E2,7.616647E1,8.494183E0,2.1280024E1,1.768576E2,1.4853532E1,1.7168165E0,4.713011E1,2.698174E3,1.57157345E1,6.763291E-1,1.802292E1,4.119144E0,1.5165015E1,1.511844E2,6.87974E-1,1E0,4.08E1,4.4905678E1,1.844158E2,1.5237956E1,1.7704309E0,4.9127674E1,1.992303E2,1.2740141E2,2.646609E0,1.469389E2,7.15045E-1,-3.849696E0,-2.0772169E0,-1.1828278E0,-2.780263E-1,-9.16676E-1,1.7247272E-1,2.4087584E0,-9.850602E-2,2.2715347E0,7.7720135E-1,2.275182E0,3.7498958E0,1.046106E0,3.8115375E0,-2.273051E-2,2.0015562E0,8.351979E-1,6.8479635E-2,1.507843E-1,8.730901E-1,2.5184886E0,4.7338934E0,6.1952147E0,2.9096391E0],"split_indices":[1,18,1,19,8,1,8,11,1,0,0,0,11,0,2,1,3,0,9,8,3,5,3,0,0,1,5,13,0,9,1,3,0,10,1,0,0,11,5,0,0,0,0,0,0,0,0,0,0,0,0,0,0,0,0,0,0,0,0,0,0,0,0],"split_type":[0,0,0,0,0,0,0,0,0,0,0,0,0,0,0,0,0,0,0,0,0,0,0,0,0,0,0,0,0,0,0,0,0,0,0,0,0,0,0,0,0,0,0,0,0,0,0,0,0,0,0,0,0,0,0,0,0,0,0,0,0,0,0],"sum_hessian":[1.049E3,8.59E2,1.9E2,7.39E2,1.2E2,1.72E2,1.8E1,7.02E2,3.7E1,8.4E1,3.6E1,6.6E1,1.06E2,8E0,1E1,3.8E1,6.64E2,7E0,3E1,3.4E1,3.2E1,1.1E1,9.5E1,1E0,9E0,2.7E1,1.1E1,5.26E2,1.38E2,1.1E1,1.9E1,3E1,4E0,8E0,2.4E1,4E0,7E0,6.5E1,3E1,4E0,2.3E1,6E0,5E0,4.03E2,1.23E2,3.3E1,1.05E2,9E0,2E0,9E0,1E1,1E0,2.9E1,2E0,6E0,9E0,1.5E1,2E0,2E0,1.2E1,5.3E1,2.7E1,3E0],"tree_param":{"num_deleted":"0","num_feature":"21","num_nodes":"63","size_leaf_vector":"1"}},{"base_weights":[3.1329486E-1,-9.981551E0,3.768175E1,-4.020878E0,-4.4579338E1,2.9808826E1,1.06215126E2,2.275374E1,-4.917938E0,-4.950887E0,-4.000913E0,1.8229288E1,4.2513577E1,7.5743675E1,1.3257092E2,2.2202377E-1,2.358616E1,-1.6801945E1,-3.8486843E0,1.4039631E1,4.565628E1,4.53905E1,2.2215359E1,1.7739395E0,7.9099083E0,3.9131868E0,1.3800163E1,1.1860965E0,2.4813247E0,-3.5170155E0,-1.2536327E1,-5.794764E0,4.172609E0,7.4078264E0,2.6475868E1,1.3427337E0,4.710256E0,2.2669065E1,4.6847675E1,-3.5474855E-1,2.6804789E1,-1.7650608E0,-1.5242457E-1,-1.5695632E0,-3.8941407E-1,-1.6073452E-1,1.4963392E0,-2.40949E-2,1.0179532E0,1.3862107E0,2.8765516E0,2.5842614E0,1.8138885E-1,3.3762784E0,4.918245E0,1.3795319E0,2.9608467E0],"categories":[],"categories_nodes":[],"categories_segments":[],"categories_sizes":[],"default_left":[0,0,0,0,0,0,0,0,0,0,0,0,0,0,0,0,0,0,0,0,0,0,0,0,0,0,0,0,0,0,0,0,0,0,0,0,0,0,0,0,0,0,0,0,0,0,0,0,0,0,0,0,0,0,0,0,0],"id":9,"left_children":[1,3,5,7,9,11,13,15,17,-1,-1,19,21,23,25,-1,27,29,31,33,35,37,39,-1,-1,-1,-1,-1,-1,-1,41,43,45,47,49,-1,-1,51,53,-1,55,-1,-1,-1,-1,-1,-1,-1,-1,-1,-1,-1,-1,-1,-1,-1,-1],"loss_changes":[4.0431375E5,1.6975106E5,1.193135E5,1.7020893E4,7.451875E2,2.9383594E4,8.429859E3,3.4076172E2,8.601525E3,0E0,0E0,1.188416E4,4.6560938E3,1.1269922E3,1.8160938E2,0E0,2.2223633E1,3.946794E3,9.811698E3,7.7214434E3,2.0105469E1,1.7191719E3,1.7504053E3,0E0,0E0,0E0,0E0,0E0,0E0,0E0,2.6200835E3,9.441879E3,7.69559E3,1.3592622E3,5.543242E2,0E0,0E0,4.164187E2,7.223906E2,0E0,2.9233398E1,0E0,0E0,0E0,0E0,0E0,0E0,0E0,0E0,0E0,0E0,0E0,0E0,0E0,0E0,0E0,0E0],"parents":[2147483647,0,0,1,1,2,2,3,3,4,4,5,5,6,6,7,7,8,8,11,11,12,12,13,13,14,14,16,16,17,17,18,18,19,19,20,20,21,21,22,22,30,30,31,31,32,32,33,33,34,34,37,37,38,38,40,40],"right_children":[2,4,6,8,10,12,14,16,18,-1,-1,20,22,24,26,-1,28,30,32,34,36,38,40,-1,-1,-1,-1,-1,-1,-1,42,44,46,48,50,-1,-1,52,54,-1,56,-1,-1,-1,-1,-1,-1,-1,-1,-1,-1,-1,-1,-1,-1,-1,-1],"split_conditions":[1.88294E2,1E0,2.746733E2,3.141592E1,1.0134388E2,1.224986E2,5.0157354E3,1.3269785E2,8.585569E1,-4.950887E0,-4.000913E0,2.296444E2,3.7408554E1,3.002399E1,2.1280024E1,2.2202377E-1,1.6401294E2,1.4074905E2,1.4580354E1,2.05075E0,1.736048E1,6.53099E-1,1.91302E2,1.7739395E0,7.9099083E0,3.9131868E0,1.3800163E1,1.1860965E0,2.4813247E0,-3.5170155E0,5.2864483E1,7.2775865E0,1.3031216E2,4.9127674E1,8.87501E-1,1.3427337E0,4.710256E0,2.1090067E2,1.647724E1,-3.5474855E-1,1.713223E1,-1.7650608E0,-1.5242457E-1,-1.5695632E0,-3.8941407E-1,-1.6073452E-1,1.4963392E0,-2.40949E-2,1.0179532E0,1.3862107E0,2.8765516E0,2.5842614E0,1.8138885E-1,3.3762784E0,4.918245E0,1.3795319E0,2.9608467E0],"split_indices":[1,18,1,0,1,10,8,1,11,0,0,1,0,0,2,0,1,1,2,12,2,5,1,0,0,0,0,0,0,0,10,3,10,10,6,0,0,1,3,0,2,0,0,0,0,0,0,0,0,0,0,0,0,0,0,0,0],"split_type":[0,0,0,0,0,0,0,0,0,0,0,0,0,0,0,0,0,0,0,0,0,0,0,0,0,0,0,0,0,0,0,0,0,0,0,0,0,0,0,0,0,0,0,0,0,0,0,0,0,0,0,0,0,0,0,0,0],"sum_hessian":[1.049E3,8.23E2,2.26E2,7.03E2,1.2E2,2.04E2,2.2E1,2.2E1,6.81E2,5.3E1,6.7E1,1.08E2,9.6E1,1.2E1,1E1,1E0,2.1E1,5.5E1,6.26E2,9.5E1,1.3E1,8.3E1,1.3E1,1E0,1.1E1,1E0,9E0,3E0,1.8E1,9E0,4.6E1,5.04E2,1.22E2,6.3E1,3.2E1,1E0,1.2E1,6E0,7.7E1,2E0,1.1E1,3.1E1,1.5E1,8E1,4.24E2,8E1,4.2E1,1.7E1,4.6E1,6E0,2.6E1,5E0,1E0,1.4E1,6.3E1,3E0,8E0],"tree_param":{"num_deleted":"0","num_feature":"21","num_nodes":"57","size_leaf_vector":"1"}},{"base_weights":[3.2256886E-1,-7.1583347E0,4.2601837E1,-1.9776862E0,-4.0195385E1,3.397222E1,1.0394627E2,-3.7602398E0,2.3331411E1,-4.5473466E0,-3.6588776E0,5.950353E0,3.679375E1,6.5237474E0,1.2108995E1,-5.316481E0,3.8744054E0,2.0608318E1,3.0464106E1,2.2547455E0,1.4625686E0,3.9923008E1,1.8056072E1,-1.2582523E1,-2.9994297E0,-1.2142805E0,2.2012484E1,3.0005214E0,1.8730742E1,1.2016083E0,3.2952104E0,3.2799287E0,-3.9985427E-1,3.4008156E1,4.7753517E1,2.7315762E0,2.4428601E0,-1.8940591E0,1.5128933E-1,-1.0362042E0,-9.607167E-2,-1.0794348E0,2.262053E-1,-1.3662556E0,2.541299E0,4.5700914E-1,1.9004757E0,-7.405777E-2,3.808938E-1,2.2800956E0,4.2402816E0,3.379762E0,5.1930804E0,6.3576585E-1,-1.5774003E-1],"categories":[],"categories_nodes":[],"categories_segments":[],"categories_sizes":[],"default_left":[0,0,0,0,0,0,0,0,0,0,0,0,0,0,0,0,0,0,0,0,0,0,0,0,0,0,0,0,0,0,0,0,0,0,0,0,0,0,0,0,0,0,0,0,0,0,0,0,0,0,0,0,0,0,0],"id":10,"left_children":[1,3,5,7,9,11,13,15,17,-1,-1,19,21,-1,-1,23,25,27,29,31,-1,33,35,37,39,41,43,-1,45,-1,-1,47,-1,49,51,53,-1,-1,-1,-1,-1,-1,-1,-1,-1,-1,-1,-1,-1,-1,-1,-1,-1,-1,-1],"loss_changes":[3.3240644E5,1.5276045E5,8.011056E4,3.4961492E4,6.3953125E2,1.0850078E4,4.7090156E3,8.610816E3,3.6275977E2,0E0,0E0,4.158716E2,6.725797E3,0E0,0E0,1.0080572E4,1.1379505E4,1.4371484E2,1.5482715E2,8.363336E1,0E0,3.3781406E3,1.8863877E3,1.3023492E4,6.849731E3,3.2548574E3,3.622662E3,0E0,5.2835938E1,0E0,0E0,2.4089668E1,0E0,5.148414E3,8.0997656E2,1.19401474E2,0E0,0E0,0E0,0E0,0E0,0E0,0E0,0E0,0E0,0E0,0E0,0E0,0E0,0E0,0E0,0E0,0E0,0E0,0E0],"parents":[2147483647,0,0,1,1,2,2,3,3,4,4,5,5,6,6,7,7,8,8,11,11,12,12,15,15,16,16,17,17,18,18,19,19,21,21,22,22,23,23,24,24,25,25,26,26,28,28,31,31,33,33,34,34,35,35],"right_children":[2,4,6,8,10,12,14,16,18,-1,-1,20,22,-1,-1,24,26,28,30,32,-1,34,36,38,40,42,44,-1,46,-1,-1,48,-1,50,52,54,-1,-1,-1,-1,-1,-1,-1,-1,-1,-1,-1,-1,-1,-1,-1,-1,-1,-1,-1],"split_conditions":[2.007178E2,1E0,2.0362476E1,1E0,9.382957E1,7.183036E1,2.1280024E1,1.5642329E1,6.89571E-1,-4.5473466E0,-3.6588776E0,4.9127674E1,9.60023E1,6.5237474E0,1.2108995E1,9.177458E-1,1.282641E2,1.3257368E2,1.7288591E2,7.0901275E-1,1.4625686E0,2.239727E2,1.700583E1,1.5053568E1,2.1161455E2,5.4390854E1,5.898444E1,3.0005214E0,2.716616E1,1.2016083E0,3.2952104E0,1.2462712E2,-3.9985427E-1,1.2395653E2,9.08269E-1,7.101378E-1,2.4428601E0,-1.8940591E0,1.5128933E-1,-1.0362042E0,-9.607167E-2,-1.0794348E0,2.262053E-1,-1.3662556E0,2.541299E0,4.5700914E-1,1.9004757E0,-7.405777E-2,3.808938E-1,2.2800956E0,4.2402816E0,3.379762E0,5.1930804E0,6.3576585E-1,-1.5774003E-1],"split_indices":[1,18,3,19,1,11,2,2,5,0,0,10,9,0,0,6,10,11,1,5,0,1,2,3,8,10,1,0,0,0,0,0,0,10,6,5,0,0,0,0,0,0,0,0,0,0,0,0,0,0,0,0,0,0,0],"split_type":[0,0,0,0,0,0,0,0,0,0,0,0,0,0,0,0,0,0,0,0,0,0,0,0,0,0,0,0,0,0,0,0,0,0,0,0,0,0,0,0,0,0,0,0,0,0,0,0,0,0,0,0,0,0,0],"sum_hessian":[1.049E3,8.92E2,1.57E2,7.72E2,1.2E2,1.39E2,1.8E1,7.22E2,5E1,4.4E1,7.6E1,1.3E1,1.26E2,7E0,1.1E1,6E2,1.22E2,3.9E1,1.1E1,1E1,3E0,1.07E2,1.9E1,1.44E2,4.56E2,9.6E1,2.6E1,4E0,3.5E1,2E0,9E0,9E0,1E0,6.4E1,4.3E1,6E0,1.3E1,9.9E1,4.5E1,9.8E1,3.58E2,2.5E1,7.1E1,2E0,2.4E1,1E0,3.4E1,1E0,8E0,2.9E1,3.5E1,1.2E1,3.1E1,3E0,3E0],"tree_param":{"num_deleted":"0","num_feature":"21","num_nodes":"55","size_leaf_vector":"1"}},{"base_weights":[3.256548E-1,-8.1323395E0,3.1026365E1,-3.2891533E0,-3.6243664E1,2.4458103E1,8.8220604E1,1.0796848E1,-4.5943794E0,-3.856817E0,-2.9924037E0,1.4984931E1,3.485107E1,6.264718E1,1.1042369E1,-1.095518E1,2.0379984E1,-3.1743846E0,-1.567743E1,1.1854396E1,3.9302223E0,3.8285587E1,2.2809175E1,1.4255883E0,6.54918E0,-1.7478203E1,1.987505E-1,2.9441614E0,1.7016459E1,1.718926E1,-4.0572085E0,-1.8455116E1,3.6675026E0,6.0964932E0,2.0050941E1,3.0132736E1,4.3462463E1,-3.3543652E-1,2.5340149E1,-2.0659962E0,-8.891749E-1,-6.064299E-1,5.16944E-1,1.9205935E0,6.140417E-1,2.1770256E0,2.9539478E-1,-1.6562867E-1,-1.0220252E0,-2.042258E0,-4.1625604E-1,9.7529966E-1,-2.014993E-1,3.2001546E-1,1.4379077E0,2.1032965E0,9.283498E-2,9.256277E-1,3.2784505E0,5.1504707E0,3.4229875E0,2.6315567E0,1.0390656E0],"categories":[],"categories_nodes":[],"categories_segments":[],"categories_sizes":[],"default_left":[0,0,0,0,0,0,0,0,0,0,0,0,0,0,0,0,0,0,0,0,0,0,0,0,0,0,0,0,0,0,0,0,0,0,0,0,0,0,0,0,0,0,0,0,0,0,0,0,0,0,0,0,0,0,0,0,0,0,0,0,0,0,0],"id":11,"left_children":[1,3,5,7,9,11,13,15,17,-1,-1,19,21,23,-1,25,27,29,31,33,-1,35,37,-1,-1,39,41,-1,43,45,47,49,51,53,55,57,59,-1,61,-1,-1,-1,-1,-1,-1,-1,-1,-1,-1,-1,-1,-1,-1,-1,-1,-1,-1,-1,-1,-1,-1,-1,-1],"loss_changes":[2.7290206E5,1.1206706E5,8.311866E4,1.2992939E4,6.23375E2,1.9660906E4,6.141875E3,1.2730423E4,1.0101163E4,0E0,0E0,7.8318457E3,3.1384688E3,8.558711E2,0E0,1.385863E3,7.7912695E2,1.0370855E4,3.9902773E3,4.5028623E3,0E0,1.813625E3,1.6742617E3,0E0,0E0,1.441372E2,2.804024E2,0E0,6.6788965E2,1.5007778E3,8.121412E3,1.7146738E3,3.6546014E2,1.3693457E3,7.31625E2,1.468043E3,1.4297812E3,0E0,4.736914E1,0E0,0E0,0E0,0E0,0E0,0E0,0E0,0E0,0E0,0E0,0E0,0E0,0E0,0E0,0E0,0E0,0E0,0E0,0E0,0E0,0E0,0E0,0E0,0E0],"parents":[2147483647,0,0,1,1,2,2,3,3,4,4,5,5,6,6,7,7,8,8,11,11,12,12,13,13,15,15,16,16,17,17,18,18,19,19,21,21,22,22,25,25,26,26,28,28,29,29,30,30,31,31,32,32,33,33,34,34,35,35,36,36,38,38],"right_children":[2,4,6,8,10,12,14,16,18,-1,-1,20,22,24,-1,26,28,30,32,34,-1,36,38,-1,-1,40,42,-1,44,46,48,50,52,54,56,58,60,-1,62,-1,-1,-1,-1,-1,-1,-1,-1,-1,-1,-1,-1,-1,-1,-1,-1,-1,-1,-1,-1,-1,-1,-1,-1],"split_conditions":[1.88294E2,1E0,2.746733E2,3.4E1,9.715283E2,1.224986E2,5.0157354E3,1.3087947E2,2.1924267E0,-3.856817E0,-2.9924037E0,3.023583E3,3.3600594E1,3.002399E1,1.1042369E1,1.2098122E2,2.40533E0,3.962474E1,1.4654539E3,1.2266484E2,3.9302223E0,1.2474905E2,2.1861252E3,1.4255883E0,6.54918E0,1.6457277E2,1.2925722E1,2.9441614E0,9.2195654E-1,5.27997E-1,8.077422E1,9.3104523E-1,1.4063843E1,2.081631E2,1.0513964E2,6.53099E-1,1.546152E2,-3.3543652E-1,9.4430405E-1,-2.0659962E0,-8.891749E-1,-6.064299E-1,5.16944E-1,1.9205935E0,6.140417E-1,2.1770256E0,2.9539478E-1,-1.6562867E-1,-1.0220252E0,-2.042258E0,-4.1625604E-1,9.7529966E-1,-2.014993E-1,3.2001546E-1,1.4379077E0,2.1032965E0,9.283498E-2,9.256277E-1,3.2784505E0,5.1504707E0,3.4229875E0,2.6315567E0,1.0390656E0],"split_indices":[1,18,1,0,8,10,8,1,12,0,0,8,0,0,0,1,12,0,8,11,0,10,8,0,0,9,2,0,6,7,1,6,2,1,9,5,11,0,6,0,0,0,0,0,0,0,0,0,0,0,0,0,0,0,0,0,0,0,0,0,0,0,0],"split_type":[0,0,0,0,0,0,0,0,0,0,0,0,0,0,0,0,0,0,0,0,0,0,0,0,0,0,0,0,0,0,0,0,0,0,0,0,0,0,0,0,0,0,0,0,0,0,0,0,0,0,0,0,0,0,0,0,0,0,0,0,0,0,0],"sum_hessian":[1.049E3,8.23E2,2.26E2,7.03E2,1.2E2,2.04E2,2.2E1,5.9E1,6.44E2,8.4E1,3.6E1,1.08E2,9.6E1,1.2E1,1E1,1.8E1,4.1E1,5.72E2,7.2E1,9.7E1,1.1E1,7.3E1,2.3E1,1E0,1.1E1,1.1E1,7E0,9E0,3.2E1,2.3E1,5.49E2,6.3E1,9E0,5.8E1,3.9E1,3.1E1,4.2E1,2E0,2.1E1,7E0,4E0,3E0,4E0,2.6E1,6E0,1.7E1,6E0,3.96E2,1.53E2,5.5E1,8E0,4E0,5E0,4.4E1,1.4E1,3.7E1,2E0,4E0,2.7E1,2E1,2.2E1,1.9E1,2E0],"tree_param":{"num_deleted":"0","num_feature":"21","num_nodes":"63","size_leaf_vector":"1"}},{"base_weights":[3.2946843E-1,-6.547579E0,3.1292458E1,-2.2663963E0,-3.2675903E1,2.5077023E1,8.623867E1,-3.3712063E0,1.8232231E1,-3.680035E0,-2.9253051E0,1.6370947E1,3.2390087E1,5.3891754E0,1.0061672E2,-3.9972692E0,9.881467E0,1.4964219E1,2.3365774E1,1.0370987E1,3.8348976E1,2.706103E1,3.795734E1,2.8005922E0,1.0467172E1,-1.4869886E1,-3.1370842E0,1.0291548E0,2.4549558E0,1.1439096E1,2.0351775E0,8.7408906E-1,2.5230217E0,6.4682446E0,1.8828745E1,2.8840969E0,5.09735E0,3.035057E1,1.934406E1,2.1912613E1,4.1559982E1,-2.99693E0,-1.1192701E0,-1.102596E0,-1.9232212E-1,1.1446522E0,-6.262035E-1,1.2985824E0,7.1534055E-1,8.2799023E-1,-1.8996702E-1,5.3029025E-1,1.9261532E0,6.540517E-1,3.163431E0,1.2033082E-2,2.0467792E0,2.3914597E0,9.269786E-1,4.6283722E-1,4.253887E0],"categories":[],"categories_nodes":[],"categories_segments":[],"categories_sizes":[],"default_left":[0,0,0,0,0,0,0,0,0,0,0,0,0,0,0,0,0,0,0,0,0,0,0,0,0,0,0,0,0,0,0,0,0,0,0,0,0,0,0,0,0,0,0,0,0,0,0,0,0,0,0,0,0,0,0,0,0,0,0,0,0],"id":12,"left_children":[1,3,5,7,9,11,13,15,17,-1,-1,19,21,-1,23,25,27,29,31,33,35,37,39,-1,-1,41,43,45,-1,47,-1,-1,-1,49,51,-1,-1,53,55,57,59,-1,-1,-1,-1,-1,-1,-1,-1,-1,-1,-1,-1,-1,-1,-1,-1,-1,-1,-1,-1],"loss_changes":[2.2378552E5,9.612566E4,6.3066688E4,1.682031E4,6.316719E2,1.048432E4,3.4142188E3,5.872295E3,2.8785547E2,0E0,0E0,1.0283535E4,1.7319844E3,0E0,6.018125E2,6.238207E3,4.1298223E3,2.6098096E2,1.3393994E2,2.0237603E3,5.704531E2,7.075469E2,1.5748594E3,0E0,0E0,2.385207E3,5.954228E3,1.6667338E3,0E0,2.6425537E1,0E0,0E0,0E0,7.130797E2,1.4935059E1,0E0,0E0,8.3233594E2,3.8637744E2,3.1424316E1,1.0322734E3,0E0,0E0,0E0,0E0,0E0,0E0,0E0,0E0,0E0,0E0,0E0,0E0,0E0,0E0,0E0,0E0,0E0,0E0,0E0,0E0],"parents":[2147483647,0,0,1,1,2,2,3,3,4,4,5,5,6,6,7,7,8,8,11,11,12,12,14,14,15,15,16,16,17,17,18,18,19,19,20,20,21,21,22,22,25,25,26,26,27,27,29,29,33,33,34,34,37,37,38,38,39,39,40,40],"right_children":[2,4,6,8,10,12,14,16,18,-1,-1,20,22,-1,24,26,28,30,32,34,36,38,40,-1,-1,42,44,46,-1,48,-1,-1,-1,50,52,-1,-1,54,56,58,60,-1,-1,-1,-1,-1,-1,-1,-1,-1,-1,-1,-1,-1,-1,-1,-1,-1,-1,-1,-1],"split_conditions":[1.9593303E2,1E0,2.0362476E1,1E0,7.075233E2,1.22123E2,2.1280024E1,1.6647394E1,8.97599E-1,-3.680035E0,-2.9253051E0,2.296444E2,4.824929E-1,5.3891754E0,3.0271164E2,7.616647E1,1.2612416E2,5.042318E1,6.5720373E-1,2.05075E0,2.746733E2,3.28E1,2.1090067E2,2.8005922E0,1.0467172E1,1.4074905E2,7.3460355E0,1.69338E1,2.4549558E0,4.36918E-1,2.0351775E0,8.7408906E-1,2.5230217E0,1.0850878E0,3.93558E-1,2.8840969E0,5.09735E0,1.4946165E2,3.3E1,1.739615E1,1.612001E1,-2.99693E0,-1.1192701E0,-1.102596E0,-1.9232212E-1,1.1446522E0,-6.262035E-1,1.2985824E0,7.1534055E-1,8.2799023E-1,-1.8996702E-1,5.3029025E-1,1.9261532E0,6.540517E-1,3.163431E0,1.2033082E-2,2.0467792E0,2.3914597E0,9.269786E-1,4.6283722E-1,4.253887E0],"split_indices":[1,18,3,19,8,10,2,3,6,0,0,1,7,0,1,11,10,9,5,12,1,0,1,0,0,1,2,3,0,7,0,0,0,12,7,0,0,11,0,2,2,0,0,0,0,0,0,0,0,0,0,0,0,0,0,0,0,0,0,0,0],"split_type":[0,0,0,0,0,0,0,0,0,0,0,0,0,0,0,0,0,0,0,0,0,0,0,0,0,0,0,0,0,0,0,0,0,0,0,0,0,0,0,0,0,0,0,0,0,0,0,0,0,0,0,0,0,0,0,0,0,0,0,0,0],"sum_hessian":[1.049E3,8.59E2,1.9E2,7.39E2,1.2E2,1.72E2,1.8E1,7.02E2,3.7E1,5E1,7E1,8E1,9.2E1,7E0,1.1E1,6.71E2,3.1E1,2.5E1,1.2E1,6.4E1,1.6E1,5E1,4.2E1,1E0,1E1,4.8E1,6.23E2,2E1,1.1E1,1.7E1,8E0,2E0,1E1,4.5E1,1.9E1,1.1E1,5E0,3.3E1,1.7E1,9E0,3.3E1,8E0,4E1,8.2E1,5.41E2,8E0,1.2E1,1.1E1,6E0,3.7E1,8E0,1E0,1.8E1,2E0,3.1E1,1E0,1.6E1,7E0,2E0,1E0,3.2E1],"tree_param":{"num_deleted":"0","num_feature":"21","num_nodes":"61","size_leaf_vector":"1"}},{"base_weights":[3.3656618E-1,-6.616123E0,2.557304E1,-2.6799347E0,-2.9462904E1,2.0630344E1,7.859675E1,9.240021E0,-3.784613E0,-3.4659767E0,-2.703356E0,1.251943E1,2.824524E1,4.917623E0,9.1660706E1,-9.8377075E0,1.7650421E1,-2.5012238E0,-1.3806496E1,2.1538008E1,3.9370542E0,2.3803888E1,3.568338E1,2.6605623E0,9.515611E0,-1.5800352E1,3.359728E-1,2.6964953E0,1.4292974E1,1.2678122E1,-3.4225125E0,-1.6302912E1,3.55122E0,1.679456E1,2.6811733E1,2.0575721E0,2.5548637E0,1.1091716E1,2.8666922E1,3.8775926E0,2.3146656E0,-1.8683933E0,-8.0265504E-1,-5.465235E-1,4.9097443E-1,1.5970947E0,5.778941E-1,8.741837E-2,1.8540356E0,-1.16425775E-1,-9.581855E-1,-1.8049856E0,-3.621599E-1,9.1266173E-1,-1.6868147E-1,5.5762637E-1,1.7874508E0,9.733333E-1,2.8032906E0,-2.2165231E-1,4.799398E-1,4.3211156E-1,1.4168366E0,3.0693696E0,1.602343E0],"categories":[],"categories_nodes":[],"categories_segments":[],"categories_sizes":[],"default_left":[0,0,0,0,0,0,0,0,0,0,0,0,0,0,0,0,0,0,0,0,0,0,0,0,0,0,0,0,0,0,0,0,0,0,0,0,0,0,0,0,0,0,0,0,0,0,0,0,0,0,0,0,0,0,0,0,0,0,0,0,0,0,0,0,0],"id":13,"left_children":[1,3,5,7,9,11,13,15,17,-1,-1,19,21,-1,23,25,27,29,31,33,35,37,39,-1,-1,41,43,-1,45,47,49,51,53,55,57,-1,59,61,63,-1,-1,-1,-1,-1,-1,-1,-1,-1,-1,-1,-1,-1,-1,-1,-1,-1,-1,-1,-1,-1,-1,-1,-1,-1,-1],"loss_changes":[1.8440362E5,7.4022734E4,5.7870703E4,9.305041E3,5.906406E2,1.2555008E4,2.795086E3,9.800719E3,8.261441E3,0E0,0E0,7.8874873E3,2.685375E3,0E0,1.9703125E2,1.1578872E3,9.280586E2,8.056543E3,3.2211377E3,8.0049023E2,1.1893135E3,4.009418E3,5.757422E2,0E0,0E0,1.1902905E2,2.391001E2,0E0,3.7915332E2,2.267308E3,7.5138096E3,1.352457E3,3.0743616E2,2.5166699E2,1.8597168E2,0E0,5.568246E2,3.762229E2,7.8945703E2,0E0,0E0,0E0,0E0,0E0,0E0,0E0,0E0,0E0,0E0,0E0,0E0,0E0,0E0,0E0,0E0,0E0,0E0,0E0,0E0,0E0,0E0,0E0,0E0,0E0,0E0],"parents":[2147483647,0,0,1,1,2,2,3,3,4,4,5,5,6,6,7,7,8,8,11,11,12,12,14,14,15,15,16,16,17,17,18,18,19,19,20,20,21,21,22,22,25,25,26,26,28,28,29,29,30,30,31,31,32,32,33,33,34,34,36,36,37,37,38,38],"right_children":[2,4,6,8,10,12,14,16,18,-1,-1,20,22,-1,24,26,28,30,32,34,36,38,40,-1,-1,42,44,-1,46,48,50,52,54,56,58,-1,60,62,64,-1,-1,-1,-1,-1,-1,-1,-1,-1,-1,-1,-1,-1,-1,-1,-1,-1,-1,-1,-1,-1,-1,-1,-1,-1,-1],"split_conditions":[1.88294E2,1E0,2.0362476E1,3.4E1,8.654561E1,2.081631E2,2.1280024E1,1.3087947E2,2.1924267E0,-3.4659767E0,-2.703356E0,4.040792E1,2.320175E2,4.917623E0,3.0271164E2,1.2098122E2,2.40533E0,4.08E1,1.4654539E3,1.236024E2,1.5208244E1,1.2153784E2,6.927484E1,2.6605623E0,9.515611E0,1.6457277E2,1.2925722E1,2.6964953E0,9.2195654E-1,1.4627554E2,8.077422E1,9.3104523E-1,1.4063843E1,9.233717E-1,4.585925E1,2.0575721E0,1.638695E1,6.763291E-1,6.0268803E1,3.8775926E0,2.3146656E0,-1.8683933E0,-8.0265504E-1,-5.465235E-1,4.9097443E-1,1.5970947E0,5.778941E-1,8.741837E-2,1.8540356E0,-1.16425775E-1,-9.581855E-1,-1.8049856E0,-3.621599E-1,9.1266173E-1,-1.6868147E-1,5.5762637E-1,1.7874508E0,9.733333E-1,2.8032906E0,-2.2165231E-1,4.799398E-1,4.3211156E-1,1.4168366E0,3.0693696E0,1.602343E0],"split_indices":[1,18,3,0,1,1,2,1,12,0,0,0,1,0,1,1,12,0,8,10,3,10,9,0,0,9,2,0,6,1,1,6,2,4,9,0,2,5,9,0,0,0,0,0,0,0,0,0,0,0,0,0,0,0,0,0,0,0,0,0,0,0,0,0,0],"split_type":[0,0,0,0,0,0,0,0,0,0,0,0,0,0,0,0,0,0,0,0,0,0,0,0,0,0,0,0,0,0,0,0,0,0,0,0,0,0,0,0,0,0,0,0,0,0,0,0,0,0,0,0,0,0,0,0,0,0,0,0,0,0,0,0,0],"sum_hessian":[1.049E3,8.23E2,2.26E2,7.03E2,1.2E2,2.08E2,1.8E1,5.9E1,6.44E2,3.4E1,8.6E1,1.02E2,1.06E2,7E0,1.1E1,1.8E1,4.1E1,5.72E2,7.2E1,4.9E1,5.3E1,6.9E1,3.7E1,1E0,1E1,1.1E1,7E0,9E0,3.2E1,3.2E1,5.4E2,6.3E1,9E0,2.8E1,2.1E1,3E0,5E1,2E1,4.9E1,2.8E1,9E0,7E0,4E0,3E0,4E0,2.6E1,6E0,1.1E1,2.1E1,3.96E2,1.44E2,5.5E1,8E0,4E0,5E0,3E0,2.5E1,2E0,1.9E1,1.6E1,3.4E1,7E0,1.3E1,4.1E1,8E0],"tree_param":{"num_deleted":"0","num_feature":"21","num_nodes":"65","size_leaf_vector":"1"}},{"base_weights":[3.3497027E-1,-6.2049203E0,2.2432955E1,-2.630262E0,-2.6567598E1,1.764175E1,6.68699E1,7.564174E0,-3.541211E0,-2.8612454E0,-2.1879776E0,8.86642E0,2.4222513E1,4.1128082E1,7.7857E1,-8.997441E0,1.5438701E1,-2.380389E0,-1.244534E1,4.7558613E0,2.5058346E1,1.9123627E1,3.0692272E1,1.0804039E0,4.3568087E0,9.729554E1,5.4087358E0,3.12541E-1,-1.4454309E1,2.45381E0,1.18909445E1,1.3797401E1,-3.0949938E0,-1.6667618E1,-3.130373E0,-8.7053937E-1,6.7453094E0,3.4684513E0,1.9142964E0,1.2243867E1,2.1905844E1,3.9379272E1,2.509955E1,2.9311523E0,1.0374095E1,5.6210595E-1,-3.996782E-1,-1.7049092E0,-7.411798E-1,1.332263E0,5.2836007E-1,1.740942E0,2.5382963E-1,-1.04812644E-1,-8.7166005E-1,-1.9757622E0,-8.140435E-1,-8.852828E-1,3.329818E-1,1.5751895E-1,-4.3065318E-1,-6.579151E-2,9.404983E-1,2.8118896E-1,1.300825E0,1.5289544E0,2.5149715E0,4.30537E0,2.048013E0,2.5669403E0,2.8622743E-1],"categories":[],"categories_nodes":[],"categories_segments":[],"categories_sizes":[],"default_left":[0,0,0,0,0,0,0,0,0,0,0,0,0,0,0,0,0,0,0,0,0,0,0,0,0,0,0,0,0,0,0,0,0,0,0,0,0,0,0,0,0,0,0,0,0,0,0,0,0,0,0,0,0,0,0,0,0,0,0,0,0,0,0,0,0,0,0,0,0,0,0],"id":14,"left_children":[1,3,5,7,9,11,13,15,17,-1,-1,19,21,23,25,27,29,31,33,35,37,39,41,-1,-1,43,-1,45,47,-1,49,51,53,55,57,59,61,-1,-1,63,65,67,69,-1,-1,-1,-1,-1,-1,-1,-1,-1,-1,-1,-1,-1,-1,-1,-1,-1,-1,-1,-1,-1,-1,-1,-1,-1,-1,-1,-1],"loss_changes":[1.5188352E5,5.8962504E4,4.991785E4,6.4438345E3,5.338594E2,1.2374375E4,3.3029297E3,7.572556E3,6.533804E3,0E0,0E0,6.2038228E3,3.5036328E3,1.952041E2,1.6682578E3,9.697811E2,9.672344E2,6.5513906E3,2.8189414E3,8.67766E2,4.1794336E2,1.1099414E3,1.5865469E3,0E0,0E0,2.6484375E1,0E0,2.0547511E2,9.29209E1,0E0,2.1339746E2,9.3184424E2,6.2044727E3,1.1566152E3,9.167141E2,1.8325723E2,1.1285269E3,0E0,0E0,1.2924414E2,6.885918E2,4.376836E2,3.7004688E2,0E0,0E0,0E0,0E0,0E0,0E0,0E0,0E0,0E0,0E0,0E0,0E0,0E0,0E0,0E0,0E0,0E0,0E0,0E0,0E0,0E0,0E0,0E0,0E0,0E0,0E0,0E0,0E0],"parents":[2147483647,0,0,1,1,2,2,3,3,4,4,5,5,6,6,7,7,8,8,11,11,12,12,13,13,14,14,15,15,16,16,17,17,18,18,19,19,20,20,21,21,22,22,25,25,27,27,28,28,30,30,31,31,32,32,33,33,34,34,35,35,36,36,39,39,40,40,41,41,42,42],"right_children":[2,4,6,8,10,12,14,16,18,-1,-1,20,22,24,26,28,30,32,34,36,38,40,42,-1,-1,44,-1,46,48,-1,50,52,54,56,58,60,62,-1,-1,64,66,68,70,-1,-1,-1,-1,-1,-1,-1,-1,-1,-1,-1,-1,-1,-1,-1,-1,-1,-1,-1,-1,-1,-1,-1,-1,-1,-1,-1,-1],"split_conditions":[1.8602266E2,1E0,2.746733E2,3.4E1,9.622105E2,1.7745541E0,3.0271164E2,1.3087947E2,2.1924267E0,-2.8612454E0,-2.1879776E0,2.256576E2,1.2474905E2,3.002399E1,6.9504493E-1,2.6949885E0,2.40533E0,3.962474E1,1.3810636E1,4.9127674E1,9.350412E-1,4.51041E-1,1.544233E2,1.0804039E0,4.3568087E0,6.51171E-1,5.4087358E0,1.8285286E2,1.6457277E2,2.45381E0,9.2195654E-1,5.27997E-1,8.077422E1,9.27736E-1,1.2708287E2,1.0540392E0,1.6068163E1,3.4684513E0,1.9142964E0,9.233717E-1,1.2153784E2,7.273355E-1,5.14731E-1,2.9311523E0,1.0374095E1,5.6210595E-1,-3.996782E-1,-1.7049092E0,-7.411798E-1,1.332263E0,5.2836007E-1,1.740942E0,2.5382963E-1,-1.04812644E-1,-8.7166005E-1,-1.9757622E0,-8.140435E-1,-8.852828E-1,3.329818E-1,1.5751895E-1,-4.3065318E-1,-6.579151E-2,9.404983E-1,2.8118896E-1,1.300825E0,1.5289544E0,2.5149715E0,4.30537E0,2.048013E0,2.5669403E0,2.8622743E-1],"split_indices":[1,18,1,0,8,12,1,1,12,0,0,1,10,0,5,12,12,0,3,10,4,7,11,0,0,5,0,10,9,0,6,7,1,6,1,12,2,0,0,4,10,5,7,0,0,0,0,0,0,0,0,0,0,0,0,0,0,0,0,0,0,0,0,0,0,0,0,0,0,0,0],"split_type":[0,0,0,0,0,0,0,0,0,0,0,0,0,0,0,0,0,0,0,0,0,0,0,0,0,0,0,0,0,0,0,0,0,0,0,0,0,0,0,0,0,0,0,0,0,0,0,0,0,0,0,0,0,0,0,0,0,0,0,0,0,0,0,0,0,0,0,0,0,0,0],"sum_hessian":[1.049E3,8.1E2,2.39E2,6.9E2,1.2E2,2.17E2,2.2E1,5.6E1,6.34E2,8E1,4E1,9.4E1,1.23E2,8E0,1.4E1,1.8E1,3.8E1,5.62E2,7.2E1,7.6E1,1.8E1,7.1E1,5.2E1,1E0,7E0,6E0,8E0,7E0,1.1E1,9E0,2.9E1,2.3E1,5.39E2,4.9E1,2.3E1,2E1,5.6E1,5E0,1.3E1,2.2E1,4.9E1,1.8E1,3.4E1,1E0,5E0,3E0,4E0,7E0,4E0,2.3E1,6E0,1.7E1,6E0,3.96E2,1.43E2,3.5E1,1.4E1,1.2E1,1.1E1,1.2E1,8E0,1.5E1,4.1E1,2E0,2E1,1.8E1,3.1E1,1.4E1,4E0,3.3E1,1E0],"tree_param":{"num_deleted":"0","num_feature":"21","num_nodes":"71","size_leaf_vector":"1"}},{"base_weights":[3.3921233E-1,-5.974704E0,1.9160095E1,-2.7043946E0,-2.3952568E1,1.5082258E1,6.123297E1,-1.3439202E1,-1.906154E0,-2.9833167E0,-2.2190018E0,2.1492321E1,7.3236046E0,4.35188E1,7.6601265E1,-2.5496529E1,-9.817244E0,-3.1899192E0,5.717768E0,1.6434166E1,2.6301474E1,4.276925E0,2.3918365E1,1.026384E0,4.543473E0,2.0534456E0,8.01545E1,-7.337948E-1,-2.6698822E1,-1.2904253E1,-1.9189529E-1,-1.1297051E1,-1.6480569E0,-9.079146E0,8.562978E0,1.3062845E1,2.3196926E1,2.2357439E1,3.1875395E1,2.6560814E0,1.2744351E1,1.4057399E0,2.801913E0,9.939918E0,5.07582E0,-2.8201687E0,-7.337948E-1,-1.386635E0,-3.6650848E-1,-7.0072776E-1,1.1782998E0,-1.603382E0,-7.6606375E-1,-5.7470758E-2,-1.1271577E0,5.7986754E-1,-1.0556039E0,-5.26982E-1,1.2946775E0,1.124949E0,2.1817806E0,2.6833475E0,1.6513376E0,2.5161803E0,1.495144E0,3.445257E0,9.732098E-1,1.3754632E-1,9.2488956E-1,1.6211327E0,-8.426628E-2],"categories":[],"categories_nodes":[],"categories_segments":[],"categories_sizes":[],"default_left":[0,0,0,0,0,0,0,0,0,0,0,0,0,0,0,0,0,0,0,0,0,0,0,0,0,0,0,0,0,0,0,0,0,0,0,0,0,0,0,0,0,0,0,0,0,0,0,0,0,0,0,0,0,0,0,0,0,0,0,0,0,0,0,0,0,0,0,0,0,0,0],"id":15,"left_children":[1,3,5,7,9,11,13,15,17,-1,-1,19,21,23,25,27,29,31,33,35,37,39,41,-1,-1,-1,43,-1,45,47,49,51,53,55,57,59,61,63,65,67,69,-1,-1,-1,-1,-1,-1,-1,-1,-1,-1,-1,-1,-1,-1,-1,-1,-1,-1,-1,-1,-1,-1,-1,-1,-1,-1,-1,-1,-1,-1],"loss_changes":[1.2488962E5,4.6205465E4,4.4369977E4,5.6898774E3,5.921406E2,1.1878102E4,2.9278438E3,1.7585674E3,6.105956E3,0E0,0E0,2.778711E3,5.509743E3,3.6194727E2,5.4547656E2,2.2404785E1,1.0969248E3,6.6439253E3,3.866774E3,1.2245449E3,7.3826953E2,1.2699655E3,2.9356152E2,0E0,0E0,0E0,6.1189844E2,0E0,5.492871E1,1.9806982E2,8.987014E2,1.3412842E3,4.631423E3,3.908053E2,4.67688E3,5.007251E2,6.729492E1,4.960996E2,1.0913848E3,6.711517E2,7.202483E2,0E0,0E0,0E0,0E0,0E0,0E0,0E0,0E0,0E0,0E0,0E0,0E0,0E0,0E0,0E0,0E0,0E0,0E0,0E0,0E0,0E0,0E0,0E0,0E0,0E0,0E0,0E0,0E0,0E0,0E0],"parents":[2147483647,0,0,1,1,2,2,3,3,4,4,5,5,6,6,7,7,8,8,11,11,12,12,13,13,14,14,15,15,16,16,17,17,18,18,19,19,20,20,21,21,22,22,26,26,28,28,29,29,30,30,31,31,32,32,33,33,34,34,35,35,36,36,37,37,38,38,39,39,40,40],"right_children":[2,4,6,8,10,12,14,16,18,-1,-1,20,22,24,26,28,30,32,34,36,38,40,42,-1,-1,-1,44,-1,46,48,50,52,54,56,58,60,62,64,66,68,70,-1,-1,-1,-1,-1,-1,-1,-1,-1,-1,-1,-1,-1,-1,-1,-1,-1,-1,-1,-1,-1,-1,-1,-1,-1,-1,-1,-1,-1,-1],"split_conditions":[1.8075621E2,1E0,2.746733E2,8.585569E1,7.556719E1,4.040792E1,5.0157354E3,1.4074905E2,1.4983635E1,-2.9833167E0,-2.2190018E0,1.243289E2,2.296444E2,3.002399E1,2.1280024E1,1.2589649E1,5.2864483E1,7.2775865E0,6.734905E1,6.900285E-1,1.744827E1,9.4329876E-1,1.3440134E2,1.026384E0,4.543473E0,2.0534456E0,9.204524E-1,-7.337948E-1,1.0606571E0,7.255014E-1,1.556772E1,7.7271676E-1,1E0,1.2400145E2,1.1822862E2,5.106112E1,1.0004671E0,3.28E1,7.1606153E-1,2.081631E2,5.1317817E-1,1.4057399E0,2.801913E0,9.939918E0,5.07582E0,-2.8201687E0,-7.337948E-1,-1.386635E0,-3.6650848E-1,-7.0072776E-1,1.1782998E0,-1.603382E0,-7.6606375E-1,-5.7470758E-2,-1.1271577E0,5.7986754E-1,-1.0556039E0,-5.26982E-1,1.2946775E0,1.124949E0,2.1817806E0,2.6833475E0,1.6513376E0,2.5161803E0,1.495144E0,3.445257E0,9.732098E-1,1.3754632E-1,9.2488956E-1,1.6211327E0,-8.426628E-2],"split_indices":[1,18,1,11,1,0,8,1,2,0,0,10,1,0,2,2,10,3,1,5,3,6,0,0,0,0,6,0,4,5,3,5,17,0,11,9,4,0,5,1,7,0,0,0,0,0,0,0,0,0,0,0,0,0,0,0,0,0,0,0,0,0,0,0,0,0,0,0,0,0,0],"split_type":[0,0,0,0,0,0,0,0,0,0,0,0,0,0,0,0,0,0,0,0,0,0,0,0,0,0,0,0,0,0,0,0,0,0,0,0,0,0,0,0,0,0,0,0,0,0,0,0,0,0,0,0,0,0,0,0,0,0,0,0,0,0,0,0,0,0,0,0,0,0,0],"sum_hessian":[1.049E3,7.86E2,2.63E2,6.66E2,1.2E2,2.41E2,2.2E1,4.5E1,6.21E2,2.4E1,9.6E1,1.31E2,1.1E2,1.2E1,1E1,9E0,3.6E1,5.32E2,8.9E1,6.6E1,6.5E1,9.4E1,1.6E1,1E0,1.1E1,1E0,9E0,1E0,8E0,2.7E1,9E0,8.4E1,4.48E2,1.4E1,7.5E1,4.6E1,2E1,4.1E1,2.4E1,8E1,1.4E1,6E0,1E1,4E0,5E0,7E0,1E0,2.4E1,3E0,6E0,3E0,3.5E1,4.9E1,4.04E2,4.4E1,1E0,1.3E1,1.8E1,5.7E1,4E1,6E0,1.1E1,9E0,2.8E1,1.3E1,2.1E1,3E0,6.8E1,1.2E1,1.1E1,3E0],"tree_param":{"num_deleted":"0","num_feature":"21","num_nodes":"71","size_leaf_vector":"1"}},{"base_weights":[3.3528045E-1,-5.050949E0,1.853485E1,-2.1457055E0,-2.1600306E1,1.4860094E1,6.0495956E1,-3.353243E0,3.7464325E0,-2.486408E0,-1.9113661E0,9.081783E0,2.0985552E1,3.779131E0,7.059106E1,-5.047885E0,2.837376E0,-3.8527796E0,1.0218468E1,1.6318409E1,2.7348053E0,1.7466482E1,2.6915796E1,9.144725E0,4.8732066E0,-1.4809298E1,-3.821222E0,7.2925486E-2,1.0458348E1,1.1308766E1,-5.263661E0,-4.6715736E0,1.2739958E1,1.2758801E1,2.1304518E1,1.7853119E0,1.6813376E0,1.1722015E1,2.431526E1,2.9351335E0,1.716116E0,-2.3523703E0,-1.0766926E0,-6.345071E-1,3.2863668E-1,-1.9441138E-1,2.9904053E-1,7.4737644E-1,1.7586819E0,1.5259272E0,-2.2466278E-1,-7.500157E-1,1.18280135E-1,-6.45134E-2,-7.2483444E-1,-1.9316559E-1,1.333005E0,5.8138514E-1,1.4039367E0,8.282186E-1,2.2239387E0,1.4305487E-2,5.902674E-1,9.6295893E-1,2.0210657E0,3.0470347E0,1.6640471E0],"categories":[],"categories_nodes":[],"categories_segments":[],"categories_sizes":[],"default_left":[0,0,0,0,0,0,0,0,0,0,0,0,0,0,0,0,0,0,0,0,0,0,0,0,0,0,0,0,0,0,0,0,0,0,0,0,0,0,0,0,0,0,0,0,0,0,0,0,0,0,0,0,0,0,0,0,0,0,0,0,0,0,0,0,0,0,0],"id":16,"left_children":[1,3,5,7,9,11,13,15,17,-1,-1,19,21,-1,23,25,27,29,31,33,35,37,39,-1,-1,41,43,45,47,49,51,53,55,57,59,-1,61,63,65,-1,-1,-1,-1,-1,-1,-1,-1,-1,-1,-1,-1,-1,-1,-1,-1,-1,-1,-1,-1,-1,-1,-1,-1,-1,-1,-1,-1],"loss_changes":[1.0302203E5,3.8946457E4,3.6108266E4,4.9290127E3,5.0677344E2,7.6670586E3,1.6871875E3,6.036089E3,5.842889E3,0E0,0E0,5.283335E3,1.7628555E3,0E0,1.01433203E3,5.343669E3,2.6116445E3,1.2360386E3,2.4624014E3,6.866045E2,9.733621E2,2.468955E3,3.990918E2,0E0,0E0,1.5080645E3,7.232122E3,5.472035E2,5.7065234E2,3.0203516E2,7.441627E2,9.907597E1,5.0191797E2,2.2075488E2,7.14668E1,0E0,3.8877216E2,5.15854E2,9.5736914E2,0E0,0E0,0E0,0E0,0E0,0E0,0E0,0E0,0E0,0E0,0E0,0E0,0E0,0E0,0E0,0E0,0E0,0E0,0E0,0E0,0E0,0E0,0E0,0E0,0E0,0E0,0E0,0E0],"parents":[2147483647,0,0,1,1,2,2,3,3,4,4,5,5,6,6,7,7,8,8,11,11,12,12,14,14,15,15,16,16,17,17,18,18,19,19,20,20,21,21,22,22,25,25,26,26,27,27,28,28,29,29,30,30,31,31,32,32,33,33,34,34,36,36,37,37,38,38],"right_children":[2,4,6,8,10,12,14,16,18,-1,-1,20,22,-1,24,26,28,30,32,34,36,38,40,-1,-1,42,44,46,48,50,52,54,56,58,60,-1,62,64,66,-1,-1,-1,-1,-1,-1,-1,-1,-1,-1,-1,-1,-1,-1,-1,-1,-1,-1,-1,-1,-1,-1,-1,-1,-1,-1,-1,-1],"split_conditions":[1.8602266E2,1E0,2.0362476E1,1.5208244E1,1.1019079E1,2.081631E2,2.1280024E1,1E0,1.217051E2,-2.486408E0,-1.9113661E0,4.040792E1,2.320175E2,3.779131E0,4.3602479E-1,1.1601955E2,5.3277462E1,9.701019E-1,6.650967E1,1.243289E2,1.5208244E1,1.25191536E2,6.927484E1,9.144725E0,4.8732066E0,1.4531616E2,1.3927177E1,5.055446E1,5.687812E1,9.4380003E-1,1.6415623E1,1.5636031E1,9.952659E-1,8.850024E-1,1.8125234E0,1.7853119E0,1.3862077E2,5.225222E-1,7.07224E-1,2.9351335E0,1.716116E0,-2.3523703E0,-1.0766926E0,-6.345071E-1,3.2863668E-1,-1.9441138E-1,2.9904053E-1,7.4737644E-1,1.7586819E0,1.5259272E0,-2.2466278E-1,-7.500157E-1,1.18280135E-1,-6.45134E-2,-7.2483444E-1,-1.9316559E-1,1.333005E0,5.8138514E-1,1.4039367E0,8.282186E-1,2.2239387E0,1.4305487E-2,5.902674E-1,9.6295893E-1,2.0210657E0,3.0470347E0,1.6640471E0],"split_indices":[1,18,3,3,3,1,2,13,11,0,0,0,1,0,7,11,1,12,1,10,3,10,9,0,0,1,2,1,1,6,3,3,12,6,12,0,0,7,5,0,0,0,0,0,0,0,0,0,0,0,0,0,0,0,0,0,0,0,0,0,0,0,0,0,0,0,0],"split_type":[0,0,0,0,0,0,0,0,0,0,0,0,0,0,0,0,0,0,0,0,0,0,0,0,0,0,0,0,0,0,0,0,0,0,0,0,0,0,0,0,0,0,0,0,0,0,0,0,0,0,0,0,0,0,0,0,0,0,0,0,0,0,0,0,0,0,0],"sum_hessian":[1.049E3,8.1E2,2.39E2,6.9E2,1.2E2,2.21E2,1.8E1,5.73E2,1.17E2,4.8E1,7.2E1,1.15E2,1.06E2,7E0,1.1E1,4.5E2,1.23E2,5.4E1,6.3E1,5.3E1,6.2E1,6.9E1,3.7E1,4E0,7E0,4.9E1,4.01E2,9.1E1,3.2E1,4E0,5E1,9E0,5.4E1,3.3E1,2E1,3E0,5.9E1,3.9E1,3E1,2.8E1,9E0,1.4E1,3.5E1,2.96E2,1.05E2,5.4E1,3.7E1,2.4E1,8E0,3E0,1E0,3.7E1,1.3E1,4E0,5E0,2E0,5.2E1,6E0,2.7E1,2E0,1.8E1,4.4E1,1.5E1,3.3E1,6E0,1.5E1,1.5E1],"tree_param":{"num_deleted":"0","num_feature":"21","num_nodes":"67","size_leaf_vector":"1"}},{"base_weights":[3.3324575E-1,-4.870268E0,1.5843973E1,-2.213238E0,-1.9476622E1,1.2391017E1,5.148621E1,-1.1166884E1,-1.5475129E0,-2.458223E0,-1.7959953E1,1.7651987E1,6.023096E0,3.1001312E1,6.0344734E1,-2.1258518E1,-8.137609E0,-2.786622E0,4.4424667E0,-1.9012175E0,-1.4527814E0,1.38893795E1,2.2359116E1,3.40052E0,1.854291E1,8.8925934E-1,3.265333E0,7.5794716E1,4.162311E0,-2.4388926E0,-1.0465678E0,-1.0937249E1,5.151474E-1,-7.1414557E0,-7.007823E-1,-5.3274937E0,8.682016E0,1.2295794E1,2.4386542E0,3.042927E1,1.785419E1,1.931026E0,1.0913154E1,3.039208E0,1.4421686E0,2.2871444E0,8.080336E0,-1.1788691E0,-2.8814277E-1,-5.4415387E-1,1.081056E0,-1.334784E0,8.3883554E-2,-3.8274488E-1,5.1738685E-1,7.2159576E-1,-6.822371E-1,-4.4292918E-1,1.0537033E0,-1.2292023E-1,1.2724266E0,3.3331158E0,1.5637757E0,3.9303234E-1,1.8500607E0,2.7213925E-1,-3.7946412E-1,1.395284E0,-9.341927E-2],"categories":[],"categories_nodes":[],"categories_segments":[],"categories_sizes":[],"default_left":[0,0,0,0,0,0,0,0,0,0,0,0,0,0,0,0,0,0,0,0,0,0,0,0,0,0,0,0,0,0,0,0,0,0,0,0,0,0,0,0,0,0,0,0,0,0,0,0,0,0,0,0,0,0,0,0,0,0,0,0,0,0,0,0,0,0,0,0,0],"id":17,"left_children":[1,3,5,7,9,11,13,15,17,-1,19,21,23,25,27,29,31,33,35,-1,-1,37,39,41,43,-1,-1,45,-1,-1,-1,47,49,51,53,55,57,59,-1,61,63,65,67,-1,-1,-1,-1,-1,-1,-1,-1,-1,-1,-1,-1,-1,-1,-1,-1,-1,-1,-1,-1,-1,-1,-1,-1,-1,-1],"loss_changes":[8.482296E4,3.0499984E4,3.1852797E4,3.9584841E3,4.9546484E2,8.001035E3,2.3029492E3,1.2332427E3,4.629012E3,0E0,7.409961E1,2.0273047E3,3.5815364E3,3.8342773E1,1.1839219E3,8.261279E1,9.019446E2,4.682074E3,4.4782188E3,0E0,0E0,9.7148535E2,1.5289688E3,1.0056251E3,4.8952344E2,0E0,0E0,7.4257812E0,0E0,0E0,0E0,1.5808545E2,6.7209143E2,8.282499E3,6.448629E3,6.6801013E2,1.8707979E3,4.09708E2,0E0,2.9431836E2,2.7831055E2,3.6783124E2,5.532179E2,0E0,0E0,0E0,0E0,0E0,0E0,0E0,0E0,0E0,0E0,0E0,0E0,0E0,0E0,0E0,0E0,0E0,0E0,0E0,0E0,0E0,0E0,0E0,0E0,0E0,0E0],"parents":[2147483647,0,0,1,1,2,2,3,3,4,4,5,5,6,6,7,7,8,8,10,10,11,11,12,12,13,13,14,14,15,15,16,16,17,17,18,18,21,21,22,22,23,23,24,24,27,27,31,31,32,32,33,33,34,34,35,35,36,36,37,37,39,39,40,40,41,41,42,42],"right_children":[2,4,6,8,10,12,14,16,18,-1,20,22,24,26,28,30,32,34,36,-1,-1,38,40,42,44,-1,-1,46,-1,-1,-1,48,50,52,54,56,58,60,-1,62,64,66,68,-1,-1,-1,-1,-1,-1,-1,-1,-1,-1,-1,-1,-1,-1,-1,-1,-1,-1,-1,-1,-1,-1,-1,-1,-1,-1],"split_conditions":[1.8075621E2,1E0,2.746733E2,8.585569E1,7.556719E1,4.040792E1,3.0271164E2,1.4074905E2,1.4853532E1,-2.458223E0,1.3159837E2,1.2474905E2,2.256576E2,3.002399E1,6.9504493E-1,9.016964E-1,5.2864483E1,7.281972E-1,1.20368E2,-1.9012175E0,-1.4527814E0,7.3341715E-1,1.544233E2,9.4329876E-1,9.147982E-1,8.8925934E-1,3.265333E0,6.51171E-1,4.162311E0,-2.4388926E0,-1.0465678E0,7.255014E-1,1.556772E1,1.400608E1,5.055446E1,1.101078E2,6.600953E1,2.05075E0,2.4386542E0,7.273355E-1,4.007116E1,1.0736208E2,5.1317817E-1,3.039208E0,1.4421686E0,2.2871444E0,8.080336E0,-1.1788691E0,-2.8814277E-1,-5.4415387E-1,1.081056E0,-1.334784E0,8.3883554E-2,-3.8274488E-1,5.1738685E-1,7.2159576E-1,-6.822371E-1,-4.4292918E-1,1.0537033E0,-1.2292023E-1,1.2724266E0,3.3331158E0,1.5637757E0,3.9303234E-1,1.8500607E0,2.7213925E-1,-3.7946412E-1,1.395284E0,-9.341927E-2],"split_indices":[1,18,1,11,1,0,1,1,3,0,1,10,1,0,5,6,10,5,11,0,0,5,11,6,4,0,0,5,0,0,0,5,3,2,1,10,1,12,0,5,9,9,7,0,0,0,0,0,0,0,0,0,0,0,0,0,0,0,0,0,0,0,0,0,0,0,0,0,0],"split_type":[0,0,0,0,0,0,0,0,0,0,0,0,0,0,0,0,0,0,0,0,0,0,0,0,0,0,0,0,0,0,0,0,0,0,0,0,0,0,0,0,0,0,0,0,0,0,0,0,0,0,0,0,0,0,0,0,0,0,0,0,0,0,0,0,0,0,0,0,0],"sum_hessian":[1.049E3,7.86E2,2.63E2,6.66E2,1.2E2,2.41E2,2.2E1,4.5E1,6.21E2,2.4E1,9.6E1,1.31E2,1.1E2,8E0,1.4E1,9E0,3.6E1,5.15E2,1.06E2,7E1,2.6E1,7.5E1,5.6E1,9.2E1,1.8E1,1E0,7E0,6E0,8E0,6E0,3E0,2.7E1,9E0,1.66E2,3.49E2,3.2E1,7.4E1,6.7E1,8E0,1.8E1,3.8E1,7.8E1,1.4E1,3E0,1.5E1,1E0,5E0,2.4E1,3E0,6E0,3E0,9.3E1,7.3E1,2.28E2,1.21E2,3E0,2.9E1,9E0,6.5E1,2E0,6.5E1,1.4E1,4E0,2E0,3.6E1,6.9E1,9E0,1.1E1,3E0],"tree_param":{"num_deleted":"0","num_feature":"21","num_nodes":"69","size_leaf_vector":"1"}},{"base_weights":[3.2315463E-1,-3.1090732E0,1.9719713E1,-8.403444E-1,-1.7576994E1,1.5878689E1,5.527891E1,8.0117445E0,-1.9601281E0,-2.2222335E0,-1.6198534E1,1.2627707E1,2.347327E1,6.969632E0,3.7923267E0,-1.1371903E1,1.0966903E1,-1.0066648E0,-9.965879E0,-1.7226843E0,-1.3327748E1,3.6711092E0,1.6433031E1,2.7856167E1,1.822263E1,-1.3783876E0,-5.238368E0,2.662755E0,1.2184762E1,-1.8691989E0,7.3088655E0,-1.3315488E1,-2.5722828E0,-3.87459E-1,-1.3520112E0,-1.6902438E-1,5.4243073E0,1.8250994E1,8.30804E0,1.5004963E0,2.9997335E1,1.5168904E0,2.8172169E0,-1.395527E-1,-5.850197E-1,5.225733E-1,-3.1288892E-1,9.4080335E-1,1.8558356E0,-6.0234684E-1,-5.0302714E-2,-5.6728065E-1,1.081871E0,-1.7961537E0,-8.692501E-1,-6.932485E-1,2.3656265E-1,1.6660222E-1,-2.7042848E-1,6.994392E-1,-3.3896714E-1,1.3309666E0,2.134753E0,-9.970398E-2,9.043905E-1,1.1515076E0,3.1693964E0],"categories":[],"categories_nodes":[],"categories_segments":[],"categories_sizes":[],"default_left":[0,0,0,0,0,0,0,0,0,0,0,0,0,0,0,0,0,0,0,0,0,0,0,0,0,0,0,0,0,0,0,0,0,0,0,0,0,0,0,0,0,0,0,0,0,0,0,0,0,0,0,0,0,0,0,0,0,0,0,0,0,0,0,0,0,0,0],"id":18,"left_children":[1,3,5,7,9,11,13,15,17,-1,19,21,23,-1,-1,25,27,29,31,-1,33,35,37,39,41,-1,43,45,47,49,51,53,55,-1,-1,57,59,61,63,-1,65,-1,-1,-1,-1,-1,-1,-1,-1,-1,-1,-1,-1,-1,-1,-1,-1,-1,-1,-1,-1,-1,-1,-1,-1,-1,-1],"loss_changes":[6.99634E4,2.9296867E4,2.0702477E4,7.678009E3,4.1484766E2,3.2589258E3,1.1102383E3,5.108227E3,5.2339697E3,0E0,5.675586E1,3.4501992E3,4.5893555E2,0E0,0E0,1.0532202E2,7.3616504E2,4.4247056E3,1.7736421E3,0E0,2.168457E0,2.163573E2,9.1187695E2,1.27740234E2,2.4108838E2,0E0,3.5917053E0,1.7963312E2,9.934531E2,3.1638687E3,2.7040642E3,9.178008E2,5.331265E2,0E0,0E0,5.5680923E1,3.281599E2,6.033281E2,1.1172644E2,0E0,1.6811914E2,0E0,0E0,0E0,0E0,0E0,0E0,0E0,0E0,0E0,0E0,0E0,0E0,0E0,0E0,0E0,0E0,0E0,0E0,0E0,0E0,0E0,0E0,0E0,0E0,0E0,0E0],"parents":[2147483647,0,0,1,1,2,2,3,3,4,4,5,5,6,6,7,7,8,8,10,10,11,11,12,12,15,15,16,16,17,17,18,18,20,20,21,21,22,22,23,23,24,24,26,26,27,27,28,28,29,29,30,30,31,31,32,32,35,35,36,36,37,37,38,38,40,40],"right_children":[2,4,6,8,10,12,14,16,18,-1,20,22,24,-1,-1,26,28,30,32,-1,34,36,38,40,42,-1,44,46,48,50,52,54,56,-1,-1,58,60,62,64,-1,66,-1,-1,-1,-1,-1,-1,-1,-1,-1,-1,-1,-1,-1,-1,-1,-1,-1,-1,-1,-1,-1,-1,-1,-1,-1,-1],"split_conditions":[2.007178E2,1E0,3.0271164E2,3.4E1,7.556719E1,2.320175E2,6.9504493E-1,1.2098122E2,2.1924267E0,-2.2222335E0,1.108039E3,1.1958045E2,7.077093E-1,6.969632E0,3.7923267E0,1.6457277E2,1.3337408E2,1.308635E2,1.3810636E1,-1.7226843E0,9.6754575E-1,4.9127674E1,3.3600594E1,6.6603357E-1,2.1004684E0,-1.3783876E0,1.0363403E2,1.677836E2,5.42168E1,7.4040713E0,1.3228311E1,9.111834E-1,1.2708287E2,-3.87459E-1,-1.3520112E0,1.0540392E0,4.996125E-1,1.2474905E2,2.0118169E2,1.5004963E0,4.1285354E-1,1.5168904E0,2.8172169E0,-1.395527E-1,-5.850197E-1,5.225733E-1,-3.1288892E-1,9.4080335E-1,1.8558356E0,-6.0234684E-1,-5.0302714E-2,-5.6728065E-1,1.081871E0,-1.7961537E0,-8.692501E-1,-6.932485E-1,2.3656265E-1,1.6660222E-1,-2.7042848E-1,6.994392E-1,-3.3896714E-1,1.3309666E0,2.134753E0,-9.970398E-2,9.043905E-1,1.1515076E0,3.1693964E0],"split_indices":[1,18,1,0,1,1,5,1,12,0,8,10,5,0,0,9,1,10,3,0,6,10,0,5,12,0,1,9,9,3,2,6,1,0,0,12,7,10,1,0,7,0,0,0,0,0,0,0,0,0,0,0,0,0,0,0,0,0,0,0,0,0,0,0,0,0,0],"split_type":[0,0,0,0,0,0,0,0,0,0,0,0,0,0,0,0,0,0,0,0,0,0,0,0,0,0,0,0,0,0,0,0,0,0,0,0,0,0,0,0,0,0,0,0,0,0,0,0,0,0,0,0,0,0,0,0,0,0,0,0,0,0,0,0,0,0,0],"sum_hessian":[1.049E3,8.92E2,1.57E2,7.72E2,1.2E2,1.43E2,1.4E1,8.6E1,6.86E2,2.4E1,9.6E1,1.02E2,4.1E1,6E0,8E0,1.1E1,7.5E1,6.14E2,7.2E1,6.7E1,2.9E1,3.1E1,7.1E1,2E1,2.1E1,7E0,4E0,1E1,6.5E1,5.57E2,5.7E1,4.9E1,2.3E1,1E0,2.8E1,1E1,2.1E1,5.7E1,1.4E1,4E0,1.6E1,1.8E1,3E0,1E0,3E0,7E0,3E0,4.7E1,1.8E1,1.37E2,4.2E2,1.2E1,4.5E1,2.3E1,2.6E1,1.2E1,1.1E1,6E0,4E0,1.8E1,3E0,2.4E1,3.3E1,1E0,1.3E1,2E0,1.4E1],"tree_param":{"num_deleted":"0","num_feature":"21","num_nodes":"67","size_leaf_vector":"1"}},{"base_weights":[3.0741468E-1,-4.003402E0,1.3157056E1,-1.8453648E0,-1.5866273E1,1.0528075E1,4.650296E1,-6.489867E0,-7.4102837E-1,-1.875618E0,-1.4092448E0,6.5442924E0,1.5642108E1,2.8739336E0,5.447013E1,-9.51178E0,1.1994792E0,-1.9930961E0,9.69845E0,1.1863688E1,2.4064498E0,1.2896995E1,2.0287262E1,7.209151E0,3.6648006E0,-1.6914368E1,-4.880705E0,-3.3234599E0,6.7160816E0,-1.10954575E-1,-8.084318E0,5.263913E0,1.3661887E1,8.964171E0,1.5680426E1,9.664729E-1,1.048578E1,8.695564E0,1.7902163E1,2.217003E1,1.2798506E0,-1.926423E0,-9.113289E-1,-9.1432565E-1,-2.3966447E-1,-7.4005026E-1,1.9013374E-1,-2.757473E-1,1.0893186E0,-1.4879636E-1,1.1286569E0,-1.1174933E0,-1.07757166E-1,-2.960551E-1,8.5380214E-1,1.6995E0,7.2459716E-1,1.8358837E0,7.5952643E-1,3.0411023E-1,1.6647276E0,4.6556503E-2,1.1831259E0,1.4316256E0,-7.5423434E-2,6.88514E-1,1.6246828E0,2.3043778E0,1.1641663E0,2.5458615E0,1.6164191E0],"categories":[],"categories_nodes":[],"categories_segments":[],"categories_sizes":[],"default_left":[0,0,0,0,0,0,0,0,0,0,0,0,0,0,0,0,0,0,0,0,0,0,0,0,0,0,0,0,0,0,0,0,0,0,0,0,0,0,0,0,0,0,0,0,0,0,0,0,0,0,0,0,0,0,0,0,0,0,0,0,0,0,0,0,0,0,0,0,0,0,0],"id":19,"left_children":[1,3,5,7,9,11,13,15,17,-1,-1,19,21,-1,23,25,27,29,31,33,35,37,39,-1,-1,41,43,45,47,49,51,53,55,57,59,61,63,65,67,69,-1,-1,-1,-1,-1,-1,-1,-1,-1,-1,-1,-1,-1,-1,-1,-1,-1,-1,-1,-1,-1,-1,-1,-1,-1,-1,-1,-1,-1,-1,-1],"loss_changes":[5.8214746E4,2.0118328E4,2.2654172E4,3.4162961E3,3.5594727E2,4.9094395E3,1.1235547E3,2.9856846E3,7.077635E3,0E0,0E0,3.0529658E3,1.1027637E3,0E0,1.1265977E3,3.0713838E3,9.45517E2,5.5364766E3,9.4749365E2,5.3450586E2,9.205898E2,1.3163506E3,2.5204199E2,0E0,0E0,4.6604102E2,5.9221606E2,4.6140704E2,7.027621E2,5.823756E3,2.4566455E3,8.0618304E2,5.184038E2,3.3639526E2,2.5488232E2,3.700075E2,5.27453E2,4.3497803E2,7.2959375E2,1.6125195E2,0E0,0E0,0E0,0E0,0E0,0E0,0E0,0E0,0E0,0E0,0E0,0E0,0E0,0E0,0E0,0E0,0E0,0E0,0E0,0E0,0E0,0E0,0E0,0E0,0E0,0E0,0E0,0E0,0E0,0E0,0E0],"parents":[2147483647,0,0,1,1,2,2,3,3,4,4,5,5,6,6,7,7,8,8,11,11,12,12,14,14,15,15,16,16,17,17,18,18,19,19,20,20,21,21,22,22,25,25,26,26,27,27,28,28,29,29,30,30,31,31,32,32,33,33,34,34,35,35,36,36,37,37,38,38,39,39],"right_children":[2,4,6,8,10,12,14,16,18,-1,-1,20,22,-1,24,26,28,30,32,34,36,38,40,-1,-1,42,44,46,48,50,52,54,56,58,60,62,64,66,68,70,-1,-1,-1,-1,-1,-1,-1,-1,-1,-1,-1,-1,-1,-1,-1,-1,-1,-1,-1,-1,-1,-1,-1,-1,-1,-1,-1,-1,-1,-1,-1],"split_conditions":[1.8075621E2,1E0,2.0362476E1,1.473288E0,1.0709225E1,2.081631E2,2.1280024E1,7.299065E-1,1.4074905E2,-1.875618E0,-1.4092448E0,4.040792E1,2.320175E2,2.8739336E0,4.3602479E-1,1.5690866E2,1.392013E2,2.1004684E0,6.846121E-1,1.243289E2,9.4329876E-1,1.25191536E2,6.927484E1,7.209151E0,3.6648006E0,1.0096618E0,5.2864483E1,1.4471249E1,2.6761337E1,6.734905E1,1.2233465E2,1.511844E2,9.27502E-1,1.0271816E2,4.007116E1,1.8459402E1,5.1317817E-1,5.225222E-1,7.07224E-1,7.1606153E-1,1.2798506E0,-1.926423E0,-9.113289E-1,-9.1432565E-1,-2.3966447E-1,-7.4005026E-1,1.9013374E-1,-2.757473E-1,1.0893186E0,-1.4879636E-1,1.1286569E0,-1.1174933E0,-1.07757166E-1,-2.960551E-1,8.5380214E-1,1.6995E0,7.2459716E-1,1.8358837E0,7.5952643E-1,3.0411023E-1,1.6647276E0,4.6556503E-2,1.1831259E0,1.4316256E0,-7.5423434E-2,6.88514E-1,1.6246828E0,2.3043778E0,1.1641663E0,2.5458615E0,1.6164191E0],"split_indices":[1,18,3,12,2,1,2,5,1,0,0,0,1,0,7,1,0,12,5,10,6,10,9,0,0,4,10,3,9,1,1,1,6,10,9,2,7,7,5,5,0,0,0,0,0,0,0,0,0,0,0,0,0,0,0,0,0,0,0,0,0,0,0,0,0,0,0,0,0,0,0],"split_type":[0,0,0,0,0,0,0,0,0,0,0,0,0,0,0,0,0,0,0,0,0,0,0,0,0,0,0,0,0,0,0,0,0,0,0,0,0,0,0,0,0,0,0,0,0,0,0,0,0,0,0,0,0,0,0,0,0,0,0,0,0,0,0,0,0,0,0,0,0,0,0],"sum_hessian":[1.049E3,7.86E2,2.63E2,6.66E2,1.2E2,2.45E2,1.8E1,1.27E2,5.39E2,4.2E1,7.8E1,1.39E2,1.06E2,7E0,1.1E1,9.1E1,3.6E1,4.82E2,5.7E1,6E1,7.9E1,6.9E1,3.7E1,4E0,7E0,3.4E1,5.7E1,2E1,1.6E1,3.69E2,1.13E2,2.8E1,2.9E1,3.6E1,2.4E1,6.8E1,1.1E1,3.9E1,3E1,2.8E1,9E0,2.5E1,9E0,2E1,3.7E1,1.1E1,9E0,5E0,1.1E1,3.3E2,3.9E1,7.8E1,3.5E1,8E0,2E1,1.8E1,1.1E1,3E0,3.3E1,2E0,2.2E1,6.6E1,2E0,8E0,3E0,3.3E1,6E0,1.5E1,1.5E1,1.6E1,1.2E1],"tree_param":{"num_deleted":"0","num_feature":"21","num_nodes":"71","size_leaf_vector":"1"}},{"base_weights":[3.0319348E-1,-3.608495E0,1.1963025E1,-1.6623142E0,-1.4306793E1,9.54996E0,4.2576244E1,-2.6584322E0,2.7211587E0,-1.8288399E0,-1.3133114E1,5.940937E0,1.4182794E1,2.6224644E0,4.9929287E1,-8.443096E0,-1.431318E0,4.2309538E-1,9.045422E0,-1.3952566E0,-1.0491846E1,1.0752144E1,2.1981301E0,2.1712524E1,1.2620285E1,6.6324196E0,3.3441312E0,-1.4408225E1,-4.7233E0,-3.173372E0,6.78989E0,1.0849967E0,-4.549541E0,1.0417373E1,-7.2098386E-1,-2.9762384E-1,-1.0666437E0,8.137906E0,1.4191131E1,8.876491E-1,9.55022E0,2.544149E1,7.6747103E0,1.0121832E1,1.8477118E1,7.074227E-1,-1.5224131E0,-7.643395E-2,-7.5292903E-1,-1.2680066E-1,-7.6421326E-1,4.7780743E-1,1.5789169E0,-3.5232123E-2,3.341816E-1,-5.5766296E-1,2.8606722E-1,7.290697E-1,1.4239273E0,2.646352E-1,-3.847992E-1,1.698193E0,6.858082E-1,2.8383636E-1,1.5054921E0,4.1970532E-2,1.1042511E0,1.3848408E0,7.630738E-2,1.6019942E0,3.122854E0,-1.1739578E-1,1.0180367E0,4.785029E-1,1.2177454E0,1.4083164E0,2.660312E0],"categories":[],"categories_nodes":[],"categories_segments":[],"categories_sizes":[],"default_left":[0,0,0,0,0,0,0,0,0,0,0,0,0,0,0,0,0,0,0,0,0,0,0,0,0,0,0,0,0,0,0,0,0,0,0,0,0,0,0,0,0,0,0,0,0,0,0,0,0,0,0,0,0,0,0,0,0,0,0,0,0,0,0,0,0,0,0,0,0,0,0,0,0,0,0,0,0],"id":20,"left_children":[1,3,5,7,9,11,13,15,17,-1,19,21,23,-1,25,27,29,31,33,-1,35,37,39,41,43,-1,-1,45,47,49,51,53,55,57,59,-1,-1,61,63,65,67,69,71,73,75,-1,-1,-1,-1,-1,-1,-1,-1,-1,-1,-1,-1,-1,-1,-1,-1,-1,-1,-1,-1,-1,-1,-1,-1,-1,-1,-1,-1,-1,-1,-1,-1],"loss_changes":[4.793328E4,1.6362207E4,1.9095527E4,2.9196611E3,3.2526367E2,4.0288613E3,9.750703E2,3.8494688E3,1.798334E3,0E0,6.3558594E1,2.4974033E3,9.8486523E2,0E0,1.0258594E3,2.0399072E3,6.4663516E3,3.0774454E2,4.4967896E2,0E0,3.6826172E0,4.3292432E2,7.623047E2,6.9463477E2,1.144583E3,0E0,0E0,7.386953E2,6.607732E2,3.157749E3,1.354844E3,2.671663E2,9.967328E1,2.427312E2,6.2831573E1,0E0,0E0,3.023318E2,2.0242871E2,3.2324683E2,4.4265833E2,2.0851953E2,1.22809906E2,6.6578076E2,5.5368066E2,0E0,0E0,0E0,0E0,0E0,0E0,0E0,0E0,0E0,0E0,0E0,0E0,0E0,0E0,0E0,0E0,0E0,0E0,0E0,0E0,0E0,0E0,0E0,0E0,0E0,0E0,0E0,0E0,0E0,0E0,0E0,0E0],"parents":[2147483647,0,0,1,1,2,2,3,3,4,4,5,5,6,6,7,7,8,8,10,10,11,11,12,12,14,14,15,15,16,16,17,17,18,18,20,20,21,21,22,22,23,23,24,24,27,27,28,28,29,29,30,30,31,31,32,32,33,33,34,34,37,37,38,38,39,39,40,40,41,41,42,42,43,43,44,44],"right_children":[2,4,6,8,10,12,14,16,18,-1,20,22,24,-1,26,28,30,32,34,-1,36,38,40,42,44,-1,-1,46,48,50,52,54,56,58,60,-1,-1,62,64,66,68,70,72,74,76,-1,-1,-1,-1,-1,-1,-1,-1,-1,-1,-1,-1,-1,-1,-1,-1,-1,-1,-1,-1,-1,-1,-1,-1,-1,-1,-1,-1,-1,-1,-1,-1],"split_conditions":[1.8075621E2,1E0,2.0362476E1,1E0,7.556719E1,2.081631E2,2.1280024E1,1.1724438E2,5.3277462E1,-1.8288399E0,1.3159837E2,4.040792E1,2.844503E1,2.6224644E0,4.3602479E-1,1.5690866E2,1.4074905E2,1.4041153E2,1.1888342E2,-1.3952566E0,9.6754575E-1,1.243289E2,9.4329876E-1,2.5695E0,3.023583E3,6.6324196E0,3.3441312E0,7.004E1,9.67347E-1,2.1004684E0,1.610602E2,5.055446E1,5.2693108E1,8.144449E0,1.2581924E2,-2.9762384E-1,-1.0666437E0,1.0271816E2,4.007116E1,1.8459402E1,5.116938E-1,1.525137E2,1.612001E1,6.82019E-1,1.0434783E0,7.074227E-1,-1.5224131E0,-7.643395E-2,-7.5292903E-1,-1.2680066E-1,-7.6421326E-1,4.7780743E-1,1.5789169E0,-3.5232123E-2,3.341816E-1,-5.5766296E-1,2.8606722E-1,7.290697E-1,1.4239273E0,2.646352E-1,-3.847992E-1,1.698193E0,6.858082E-1,2.8383636E-1,1.5054921E0,4.1970532E-2,1.1042511E0,1.3848408E0,7.630738E-2,1.6019942E0,3.122854E0,-1.1739578E-1,1.0180367E0,4.785029E-1,1.2177454E0,1.4083164E0,2.660312E0],"split_indices":[1,18,3,13,1,1,2,11,1,0,1,0,0,0,7,1,1,0,10,0,6,10,6,12,8,0,0,1,4,12,9,1,1,3,0,0,0,10,9,2,7,11,2,5,4,0,0,0,0,0,0,0,0,0,0,0,0,0,0,0,0,0,0,0,0,0,0,0,0,0,0,0,0,0,0,0,0],"split_type":[0,0,0,0,0,0,0,0,0,0,0,0,0,0,0,0,0,0,0,0,0,0,0,0,0,0,0,0,0,0,0,0,0,0,0,0,0,0,0,0,0,0,0,0,0,0,0,0,0,0,0,0,0,0,0,0,0,0,0,0,0,0,0,0,0,0,0,0,0,0,0,0,0,0,0,0,0],"sum_hessian":[1.049E3,7.86E2,2.63E2,6.66E2,1.2E2,2.45E2,1.8E1,5.43E2,1.23E2,2.4E1,9.6E1,1.39E2,1.06E2,7E0,1.1E1,9.4E1,4.49E2,9.1E1,3.2E1,7E1,2.6E1,6E1,7.9E1,1.6E1,9E1,4E0,7E0,3.5E1,5.9E1,3.71E2,7.8E1,8.1E1,1E1,2.8E1,4E0,1E0,2.5E1,3.6E1,2.4E1,6.8E1,1.1E1,1.2E1,4E0,6.5E1,2.5E1,1E0,3.4E1,2.5E1,3.4E1,2.61E2,1.1E2,6.5E1,1.3E1,5E1,3.1E1,9E0,1E0,1.7E1,1.1E1,2E0,2E0,3E0,3.3E1,2E0,2.2E1,6.6E1,2E0,7E0,4E0,6E0,6E0,1E0,3E0,1.9E1,4.6E1,1.8E1,7E0],"tree_param":{"num_deleted":"0","num_feature":"21","num_nodes":"77","size_leaf_vector":"1"}},{"base_weights":[2.9931504E-1,-3.038048E0,1.1575574E1,-1.3042818E0,-1.2914035E1,9.17786E0,3.898173E1,-6.073574E0,-4.2972025E-1,-1.5381936E0,-1.1407279E1,5.692166E0,1.2870969E1,2.3929985E0,4.576775E1,-1.1080334E1,-5.004738E0,-2.5650253E0,2.1763325E0,-1.3343443E0,-1.0205699E0,1.9884324E0,1.0212368E1,1.9872185E1,1.142161E1,6.101826E0,3.051521E0,-1.2432137E1,-1.7727153E-2,-3.871263E0,-8.138284E0,-1.5220541E1,-1.3551286E0,-2.9444072E-1,5.283154E0,1.4219178E0,1.1672807E0,6.4529343E0,1.2971473E1,2.3260792E1,7.087369E0,9.135352E0,1.6785896E1,-1.4063671E0,-6.0300297E-1,-2.9031092E-1,-7.7439827E-1,-4.850323E-1,-1.0748054E0,-1.6669159E0,-7.130753E-1,-6.7682356E-1,1.8073511E-1,1.133191E-1,-2.8747842E-1,2.2581017E-1,8.427803E-1,-5.6634057E-1,2.0002721E-1,2.3031819E-1,9.787095E-1,1.3711709E0,1.9855194E-1,1.4646806E0,2.8551807E0,-1.1152573E-1,9.4168395E-1,4.4870314E-1,1.1058817E0,1.2748975E0,2.4275348E0],"categories":[],"categories_nodes":[],"categories_segments":[],"categories_sizes":[],"default_left":[0,0,0,0,0,0,0,0,0,0,0,0,0,0,0,0,0,0,0,0,0,0,0,0,0,0,0,0,0,0,0,0,0,0,0,0,0,0,0,0,0,0,0,0,0,0,0,0,0,0,0,0,0,0,0,0,0,0,0,0,0,0,0,0,0,0,0,0,0,0,0],"id":21,"left_children":[1,3,5,7,9,11,13,15,17,-1,19,21,23,-1,25,27,29,31,33,-1,-1,35,37,39,41,-1,-1,43,-1,45,47,49,51,53,55,-1,57,59,61,63,65,67,69,-1,-1,-1,-1,-1,-1,-1,-1,-1,-1,-1,-1,-1,-1,-1,-1,-1,-1,-1,-1,-1,-1,-1,-1,-1,-1,-1,-1],"loss_changes":[3.9549785E4,1.386963E4,1.5413145E4,2.8795786E3,2.744746E2,2.7845527E3,8.454629E2,5.1714624E2,3.260942E3,0E0,4.761133E1,1.9217217E3,8.5878516E2,0E0,9.2932227E2,2.6309424E2,2.8815625E2,4.909795E3,2.0280857E3,0E0,0E0,6.3621655E2,4.556748E2,5.716284E2,9.626924E2,0E0,0E0,8.231958E1,0E0,2.3247693E2,1.452273E2,2.0926904E2,5.06229E3,5.4845703E2,1.0939583E3,0E0,3.6410236E2,3.0952124E2,2.0860889E2,1.7430469E2,1.0604109E2,5.4047705E2,4.7660645E2,0E0,0E0,0E0,0E0,0E0,0E0,0E0,0E0,0E0,0E0,0E0,0E0,0E0,0E0,0E0,0E0,0E0,0E0,0E0,0E0,0E0,0E0,0E0,0E0,0E0,0E0,0E0,0E0],"parents":[2147483647,0,0,1,1,2,2,3,3,4,4,5,5,6,6,7,7,8,8,10,10,11,11,12,12,14,14,15,15,16,16,17,17,18,18,21,21,22,22,23,23,24,24,27,27,29,29,30,30,31,31,32,32,33,33,34,34,36,36,37,37,38,38,39,39,40,40,41,41,42,42],"right_children":[2,4,6,8,10,12,14,16,18,-1,20,22,24,-1,26,28,30,32,34,-1,-1,36,38,40,42,-1,-1,44,-1,46,48,50,52,54,56,-1,58,60,62,64,66,68,70,-1,-1,-1,-1,-1,-1,-1,-1,-1,-1,-1,-1,-1,-1,-1,-1,-1,-1,-1,-1,-1,-1,-1,-1,-1,-1,-1,-1],"split_conditions":[1.8602266E2,1E0,2.0362476E1,2.1161455E2,9.329436E1,2.081631E2,2.1280024E1,4.186679E1,7.281972E-1,-1.5381936E0,6.57218E-1,1.8125234E0,2.844503E1,2.3929985E0,4.3602479E-1,7.2065115E0,1.4660056E2,5.9611916E1,7.875009E0,-1.3343443E0,-1.0205699E0,1.5208244E1,4.803289E1,2.5695E0,3.023583E3,6.101826E0,3.051521E0,1.0086966E2,-1.7727153E-2,4.694561E1,1.6407491E0,1.421608E1,1.2760271E2,1.4120511E2,1.187347E2,1.4219178E0,8.903E-1,6.7105734E-1,2.654552E3,1.525137E2,1.612001E1,6.824278E-1,1.0434783E0,-1.4063671E0,-6.0300297E-1,-2.9031092E-1,-7.7439827E-1,-4.850323E-1,-1.0748054E0,-1.6669159E0,-7.130753E-1,-6.7682356E-1,1.8073511E-1,1.133191E-1,-2.8747842E-1,2.2581017E-1,8.427803E-1,-5.6634057E-1,2.0002721E-1,2.3031819E-1,9.787095E-1,1.3711709E0,1.9855194E-1,1.4646806E0,2.8551807E0,-1.1152573E-1,9.4168395E-1,4.4870314E-1,1.1058817E0,1.2748975E0,2.4275348E0],"split_indices":[1,18,3,8,1,1,2,1,5,0,7,12,0,0,7,2,0,1,2,0,0,3,9,12,8,0,0,10,0,1,12,3,11,0,11,0,6,5,8,11,2,5,4,0,0,0,0,0,0,0,0,0,0,0,0,0,0,0,0,0,0,0,0,0,0,0,0,0,0,0,0],"split_type":[0,0,0,0,0,0,0,0,0,0,0,0,0,0,0,0,0,0,0,0,0,0,0,0,0,0,0,0,0,0,0,0,0,0,0,0,0,0,0,0,0,0,0,0,0,0,0,0,0,0,0,0,0,0,0,0,0,0,0,0,0,0,0,0,0,0,0,0,0,0,0],"sum_hessian":[1.049E3,8.1E2,2.39E2,6.9E2,1.2E2,2.21E2,1.8E1,1.06E2,5.84E2,4.2E1,7.8E1,1.15E2,1.06E2,7E0,1.1E1,1.7E1,8.9E1,3.21E2,2.63E2,2.6E1,5.2E1,6.4E1,5.1E1,1.6E1,9E1,4E0,7E0,1.5E1,2E0,6.7E1,2.2E1,2.7E1,2.94E2,1.47E2,1.16E2,3E0,6.1E1,2.3E1,2.8E1,1.2E1,4E0,6.5E1,2.5E1,1.1E1,4E0,5.5E1,1.2E1,1.1E1,1.1E1,2.2E1,5E0,1.08E2,1.86E2,9.5E1,5.2E1,6E1,5.6E1,6E0,5.5E1,1.1E1,1.2E1,2.6E1,2E0,6E0,6E0,1E0,3E0,2E1,4.5E1,1.8E1,7E0],"tree_param":{"num_deleted":"0","num_feature":"21","num_nodes":"71","size_leaf_vector":"1"}},{"base_weights":[2.8391817E-1,-3.239643E0,9.2283E0,-1.6284847E0,-1.1654807E1,7.393087E0,3.5691257E1,-2.56921E0,2.2613463E0,-1.5246061E0,-1.0702749E1,3.4681616E0,1.1048619E1,2.0425231E0,4.1165943E1,-7.82161E0,-1.5905961E0,1.0837387E0,1.223294E1,-1.1445448E0,-8.613029E0,2.0454419E0,1.6771938E1,8.250091E0,1.4417872E1,9.696137E-1,4.2980415E1,-1.2357087E1,-4.0194144E0,-3.3596995E0,2.732462E0,2.4603572E0,-1.661791E0,7.0228577E-1,1.3768214E0,-7.07396E-1,-1.0628334E0,-3.0077245E0,3.5506127E0,1.1350292E0,2.1205475E0,4.8224363E0,9.608709E0,6.834503E0,1.6404526E1,4.6408906E0,1.7225312E0,7.058922E-1,-1.3113514E0,-2.6047582E-2,-7.603596E-1,-1.7527573E-1,-8.5802364E-1,-9.4872826E-1,5.8510846E-1,9.481282E-2,6.3037974E-1,-3.0705637E-1,2.5898287E-1,4.3844722E-2,-5.466108E-1,8.099746E-1,2.1688585E-1,1.4679905E0,2.810968E-1,1.0680625E0,4.2636983E-2,-1.2093391E-1,8.9462423E-1,1.2005023E0,2.10472E0],"categories":[],"categories_nodes":[],"categories_segments":[],"categories_sizes":[],"default_left":[0,0,0,0,0,0,0,0,0,0,0,0,0,0,0,0,0,0,0,0,0,0,0,0,0,0,0,0,0,0,0,0,0,0,0,0,0,0,0,0,0,0,0,0,0,0,0,0,0,0,0,0,0,0,0,0,0,0,0,0,0,0,0,0,0,0,0,0,0,0,0],"id":22,"left_children":[1,3,5,7,9,11,13,15,17,-1,19,21,23,-1,25,27,29,31,33,-1,35,37,39,41,43,-1,45,47,49,51,53,55,57,-1,-1,-1,-1,59,61,-1,-1,63,65,67,69,-1,-1,-1,-1,-1,-1,-1,-1,-1,-1,-1,-1,-1,-1,-1,-1,-1,-1,-1,-1,-1,-1,-1,-1,-1,-1],"loss_changes":[3.3121777E4,1.0203873E4,1.4159986E4,2.3257822E3,2.5053516E2,3.9646885E3,7.4713086E2,2.614136E3,1.442828E3,0E0,5.507129E1,2.5398403E3,1.2388203E3,0E0,3.2557227E2,1.3299136E3,3.3130886E3,4.2739783E2,7.293579E0,0E0,1.7866455E1,9.5380817E2,7.179346E1,3.3086963E2,8.5207715E2,0E0,2.6020312E2,6.212915E2,6.042918E2,2.560415E3,4.8572163E3,4.299353E2,2.355557E2,0E0,0E0,0E0,0E0,2.4808487E2,5.858679E2,0E0,0E0,4.5443494E2,5.564795E2,2.656164E2,7.686006E2,0E0,0E0,0E0,0E0,0E0,0E0,0E0,0E0,0E0,0E0,0E0,0E0,0E0,0E0,0E0,0E0,0E0,0E0,0E0,0E0,0E0,0E0,0E0,0E0,0E0,0E0],"parents":[2147483647,0,0,1,1,2,2,3,3,4,4,5,5,6,6,7,7,8,8,10,10,11,11,12,12,14,14,15,15,16,16,17,17,18,18,20,20,21,21,22,22,23,23,24,24,26,26,27,27,28,28,29,29,30,30,31,31,32,32,37,37,38,38,41,41,42,42,43,43,44,44],"right_children":[2,4,6,8,10,12,14,16,18,-1,20,22,24,-1,26,28,30,32,34,-1,36,38,40,42,44,-1,46,48,50,52,54,56,58,-1,-1,-1,-1,60,62,-1,-1,64,66,68,70,-1,-1,-1,-1,-1,-1,-1,-1,-1,-1,-1,-1,-1,-1,-1,-1,-1,-1,-1,-1,-1,-1,-1,-1,-1,-1],"split_conditions":[1.741306E2,1E0,2.0362476E1,1E0,7.439631E1,1.7745541E0,3.0271164E2,1.1724438E2,5.6275944E1,-1.5246061E0,1.108039E3,3.2362832E3,4.824929E-1,2.0425231E0,3.7648055E-1,1.5690866E2,1.3686897E1,1.1495613E2,1.0782366E2,-1.1445448E0,1.8476497E2,4.9127674E1,2.746733E2,1.4946165E2,4.6055286E1,9.696137E-1,4.7445834E-1,7.004E1,9.67347E-1,8.798006E0,6.650967E1,7.808759E0,1.832053E0,7.0228577E-1,1.3768214E0,-7.07396E-1,-1.0628334E0,1.0540392E0,7.616647E1,1.1350292E0,2.1205475E0,1.0271816E2,4.777153E-1,6.67966E-1,2.574796E3,4.6408906E0,1.7225312E0,7.058922E-1,-1.3113514E0,-2.6047582E-2,-7.603596E-1,-1.7527573E-1,-8.5802364E-1,-9.4872826E-1,5.8510846E-1,9.481282E-2,6.3037974E-1,-3.0705637E-1,2.5898287E-1,4.3844722E-2,-5.466108E-1,8.099746E-1,2.1688585E-1,1.4679905E0,2.810968E-1,1.0680625E0,4.2636983E-2,-1.2093391E-1,8.9462423E-1,1.2005023E0,2.10472E0],"split_indices":[1,18,3,13,1,12,1,11,1,0,8,8,7,0,7,1,2,10,11,0,11,10,1,11,9,0,7,1,4,2,1,3,12,0,0,0,0,12,11,0,0,10,7,5,8,0,0,0,0,0,0,0,0,0,0,0,0,0,0,0,0,0,0,0,0,0,0,0,0,0,0],"split_type":[0,0,0,0,0,0,0,0,0,0,0,0,0,0,0,0,0,0,0,0,0,0,0,0,0,0,0,0,0,0,0,0,0,0,0,0,0,0,0,0,0,0,0,0,0,0,0,0,0,0,0,0,0,0,0,0,0,0,0,0,0,0,0,0,0,0,0,0,0,0,0],"sum_hessian":[1.049E3,7.53E2,2.96E2,6.33E2,1.2E2,2.78E2,1.8E1,5.1E2,1.23E2,2.2E1,9.8E1,1.35E2,1.43E2,6E0,1.2E1,7.9E1,4.31E2,1.11E2,1.2E1,6.9E1,2.9E1,1.23E2,1.2E1,8E1,6.3E1,1E0,1.1E1,3.5E1,4.4E1,3.06E2,1.25E2,7.4E1,3.7E1,4E0,8E0,1.9E1,1E1,2.8E1,9.5E1,7E0,5E0,2.4E1,5.6E1,1.4E1,4.9E1,9E0,2E0,1E0,3.4E1,2.2E1,2.2E1,2.35E2,7.1E1,2.5E1,1E2,5.4E1,2E1,2.8E1,9E0,1.2E1,1.6E1,2.1E1,7.4E1,3E0,2.1E1,5E1,6E0,3E0,1.1E1,2.7E1,2.2E1],"tree_param":{"num_deleted":"0","num_feature":"21","num_nodes":"71","size_leaf_vector":"1"}},{"base_weights":[2.7040404E-1,-2.6490426E0,9.151218E0,-1.2246569E0,-1.0526014E1,7.27116E0,3.261558E1,-5.4140882E0,-1.0990279E-1,-1.3622831E0,-9.61935E0,-2.4629145E0,8.556287E0,2.1779728E1,4.0189877E1,-5.914347E0,6.8274635E-1,-9.903784E0,3.530166E-1,-1.0941867E0,-8.499307E0,7.4073374E-1,-4.188031E0,-5.635333E0,9.06342E0,2.275228E0,6.513382E-1,5.2424073E0,2.3296402E0,-1.0809138E1,-3.9757977E0,-1.4162612E1,-5.210728E0,-7.5469E-1,4.4147563E0,-9.96799E-1,-7.291335E0,-5.8556695E-2,1.7115937E-1,-5.7084503E0,-2.8254158E0,6.937663E-1,-7.8606606E-1,7.8938937E0,1.4057001E1,-1.1432383E0,6.12545E-1,-5.73596E-1,-8.7131046E-2,-1.7079957E0,-8.3986086E-1,-8.3477324E-1,-2.888978E-1,-4.2519838E-1,2.0402563E-1,7.6471585E-1,-1.5830725E-1,-1.9634438E-1,-7.3902893E-1,5.799942E-2,-2.6164755E-2,-6.202929E-1,-1.12355046E-1,-1.4338748E-1,-3.6145347E-1,1.3686371E-2,9.0378575E-2,5.45557E-1,1.1299278E0,1.1791263E0,2.0047572E0],"categories":[],"categories_nodes":[],"categories_segments":[],"categories_sizes":[],"default_left":[0,0,0,0,0,0,0,0,0,0,0,0,0,0,0,0,0,0,0,0,0,0,0,0,0,0,0,0,0,0,0,0,0,0,0,0,0,0,0,0,0,0,0,0,0,0,0,0,0,0,0,0,0,0,0,0,0,0,0,0,0,0,0,0,0,0,0,0,0,0,0],"id":23,"left_children":[1,3,5,7,9,11,13,15,17,-1,19,21,23,25,27,29,-1,31,33,-1,35,37,39,41,43,-1,-1,-1,-1,45,47,49,51,53,55,-1,57,59,-1,61,63,65,-1,67,69,-1,-1,-1,-1,-1,-1,-1,-1,-1,-1,-1,-1,-1,-1,-1,-1,-1,-1,-1,-1,-1,-1,-1,-1,-1,-1],"loss_changes":[2.7247658E4,8.862006E3,1.1232582E4,3.1330996E3,2.0869824E2,3.048376E3,6.8408203E2,9.0385693E2,2.410932E3,0E0,5.0685547E1,1.633756E2,1.5912451E3,2.783203E-1,8.454873E2,1.247501E3,0E0,4.0588843E2,2.288933E3,0E0,2.8444824E1,8.636213E0,2.3234436E1,1.18128006E2,1.0979395E3,0E0,0E0,0E0,0E0,4.710952E2,5.35978E2,5.833911E1,7.056705E1,3.9185742E3,2.1253323E3,0E0,3.9422607E0,1.059541E0,0E0,1.1167755E1,7.994301E0,2.271856E-1,0E0,1.3499395E3,2.793911E2,0E0,0E0,0E0,0E0,0E0,0E0,0E0,0E0,0E0,0E0,0E0,0E0,0E0,0E0,0E0,0E0,0E0,0E0,0E0,0E0,0E0,0E0,0E0,0E0,0E0,0E0],"parents":[2147483647,0,0,1,1,2,2,3,3,4,4,5,5,6,6,7,7,8,8,10,10,11,11,12,12,13,13,14,14,15,15,17,17,18,18,20,20,21,21,22,22,23,23,24,24,29,29,30,30,31,31,32,32,33,33,34,34,36,36,37,37,39,39,40,40,41,41,43,43,44,44],"right_children":[2,4,6,8,10,12,14,16,18,-1,20,22,24,26,28,30,-1,32,34,-1,36,38,40,42,44,-1,-1,-1,-1,46,48,50,52,54,56,-1,58,60,-1,62,64,66,-1,68,70,-1,-1,-1,-1,-1,-1,-1,-1,-1,-1,-1,-1,-1,-1,-1,-1,-1,-1,-1,-1,-1,-1,-1,-1,-1,-1],"split_conditions":[1.6190187E1,1E0,2.0362476E1,7.4040713E0,7.556719E1,4.9127674E1,3.2769574E2,6.650967E1,6.1831318E1,-1.3622831E0,6.604222E-1,1.0540392E0,6.734905E1,9.26499E-1,6.82019E-1,6.305446E-1,6.8274635E-1,1.5667609E1,1.5340786E1,-1.0941867E0,1.1925356E1,1.622497E1,6.6603357E-1,1.412221E2,2.320175E2,2.275228E0,6.513382E-1,5.2424073E0,2.3296402E0,7.0669586E1,4.5581833E1,6.844099E-1,6.79296E-1,5.608485E-1,1E0,-9.96799E-1,9.6754575E-1,1.5636031E1,1.7115937E-1,1.3546512E2,8.95954E-1,1.3000385E2,-7.8606606E-1,1.2413001E2,2.1004684E0,-1.1432383E0,6.12545E-1,-5.73596E-1,-8.7131046E-2,-1.7079957E0,-8.3986086E-1,-8.3477324E-1,-2.888978E-1,-4.2519838E-1,2.0402563E-1,7.6471585E-1,-1.5830725E-1,-1.9634438E-1,-7.3902893E-1,5.799942E-2,-2.6164755E-2,-6.202929E-1,-1.12355046E-1,-1.4338748E-1,-3.6145347E-1,1.3686371E-2,9.0378575E-2,5.45557E-1,1.1299278E0,1.1791263E0,2.0047572E0],"split_indices":[2,18,3,3,1,10,1,1,11,0,7,12,1,6,5,7,0,3,3,0,3,3,5,11,1,0,0,0,0,9,1,5,5,7,17,0,6,3,0,0,6,0,0,10,12,0,0,0,0,0,0,0,0,0,0,0,0,0,0,0,0,0,0,0,0,0,0,0,0,0,0],"split_type":[0,0,0,0,0,0,0,0,0,0,0,0,0,0,0,0,0,0,0,0,0,0,0,0,0,0,0,0,0,0,0,0,0,0,0,0,0,0,0,0,0,0,0,0,0,0,0,0,0,0,0,0,0,0,0,0,0,0,0,0,0,0,0,0,0,0,0,0,0,0,0],"sum_hessian":[1.049E3,7.9E2,2.59E2,6.7E2,1.2E2,2.41E2,1.8E1,1.4E2,5.3E2,2.4E1,9.6E1,2.8E1,2.13E2,9E0,9E0,1.35E2,5E0,2.3E1,5.07E2,4E1,5.6E1,1E1,1.8E1,7E0,2.06E2,8E0,1E0,4E0,5E0,3.7E1,9.8E1,1.1E1,1.2E1,3.99E2,1.08E2,2.2E1,3.4E1,6E0,4E0,7E0,1.1E1,2E0,5E0,1.69E2,3.7E1,3.6E1,1E0,6.2E1,3.6E1,6E0,5E0,4E0,8E0,1.77E2,2.22E2,7E1,3.8E1,1E0,3.3E1,1E0,5E0,6E0,1E0,5E0,6E0,1E0,1E0,1E2,6.9E1,2.9E1,8E0],"tree_param":{"num_deleted":"0","num_feature":"21","num_nodes":"71","size_leaf_vector":"1"}},{"base_weights":[2.4856175E-1,-2.6490152E0,7.603863E0,-1.3354665E0,-9.509683E0,6.049586E0,3.0026989E1,-4.9001575E0,-6.105472E-1,-1.2679993E0,-8.756354E0,2.7963288E0,9.080095E0,1.3990918E0,3.337055E1,-6.1845245E0,4.862539E0,-3.514185E0,9.788996E-1,-7.0558643E0,-9.477829E0,1.6344426E0,1.4666284E1,6.61197E0,1.206194E1,4.823015E0,2.3582494E0,-1.1698251E1,-3.8232179E0,-1.9397494E0,9.356438E0,-3.8818693E0,8.224605E-1,1.924975E0,-5.8246155E0,-7.8238716E0,-4.995862E-1,-9.92881E-1,-6.238307E0,-2.6966708E0,2.7991457E0,1.8907121E0,7.2742593E-1,7.4269805E0,1.7775315E0,5.5375113E0,1.3778029E1,2.7578908E-1,-1.3543304E0,-4.8915958E-1,1.5701796E-1,9.553121E-2,-3.6261082E-1,2.4712296E-1,9.987006E-1,-7.2024924E-1,-2.27059E-1,1.1856602E0,1.2513854E-1,-1.453061E0,9.178984E-3,-1.6178913E-1,-8.0324215E-1,-1.7771415E-1,-6.5067095E-1,3.364779E-2,-4.8029906E-1,6.360697E-1,1.7587192E-1,5.554997E-1,1.0929426E0,7.5943565E-1,-7.269516E-2,-1.5278053E-1,7.431158E-1,1.0117396E0,1.7977136E0],"categories":[],"categories_nodes":[],"categories_segments":[],"categories_sizes":[],"default_left":[0,0,0,0,0,0,0,0,0,0,0,0,0,0,0,0,0,0,0,0,0,0,0,0,0,0,0,0,0,0,0,0,0,0,0,0,0,0,0,0,0,0,0,0,0,0,0,0,0,0,0,0,0,0,0,0,0,0,0,0,0,0,0,0,0,0,0,0,0,0,0,0,0,0,0,0,0],"id":24,"left_children":[1,3,5,7,9,11,13,15,17,-1,19,21,23,-1,25,27,29,31,33,35,37,39,41,43,45,-1,-1,47,49,51,53,55,-1,57,59,61,-1,-1,63,65,67,-1,-1,69,71,73,75,-1,-1,-1,-1,-1,-1,-1,-1,-1,-1,-1,-1,-1,-1,-1,-1,-1,-1,-1,-1,-1,-1,-1,-1,-1,-1,-1,-1,-1,-1],"loss_changes":[2.2398318E4,6.7822134E3,1.0169318E4,1.6353362E3,1.7795215E2,2.7252773E3,5.5184766E2,1.3717334E3,2.4402537E3,0E0,5.7038574E1,1.8516779E3,9.800254E2,0E0,1.0443105E3,1.1921367E3,4.1554343E2,8.390503E2,2.2125427E3,1.4704224E1,3.740625E1,6.381061E2,2.3864551E2,3.0594775E2,6.402803E2,0E0,0E0,7.8417676E2,3.9950946E2,3.2756737E1,1.0052612E1,9.574282E2,0E0,1.9988054E3,2.1646777E3,1.6772339E1,0E0,0E0,1.6079407E0,1.7411319E2,3.5566107E2,0E0,0E0,3.91687E2,1.9490656E2,2.120415E2,5.866875E2,0E0,0E0,0E0,0E0,0E0,0E0,0E0,0E0,0E0,0E0,0E0,0E0,0E0,0E0,0E0,0E0,0E0,0E0,0E0,0E0,0E0,0E0,0E0,0E0,0E0,0E0,0E0,0E0,0E0,0E0],"parents":[2147483647,0,0,1,1,2,2,3,3,4,4,5,5,6,6,7,7,8,8,10,10,11,11,12,12,14,14,15,15,16,16,17,17,18,18,19,19,20,20,21,21,22,22,23,23,24,24,27,27,28,28,29,29,30,30,31,31,33,33,34,34,35,35,38,38,39,39,40,40,43,43,44,44,45,45,46,46],"right_children":[2,4,6,8,10,12,14,16,18,-1,20,22,24,-1,26,28,30,32,34,36,38,40,42,44,46,-1,-1,48,50,52,54,56,-1,58,60,62,-1,-1,64,66,68,-1,-1,70,72,74,76,-1,-1,-1,-1,-1,-1,-1,-1,-1,-1,-1,-1,-1,-1,-1,-1,-1,-1,-1,-1,-1,-1,-1,-1,-1,-1,-1,-1,-1,-1],"split_conditions":[1.741306E2,1E0,2.0503214E1,1.473288E0,7.1680916E1,1.7745541E0,4.21348E-1,1.4500055E2,7.6142807E0,-1.2679993E0,1.8542477E2,1.8831554E1,4.824929E-1,1.3990918E0,4.3602479E-1,1.511844E2,8.10662E0,6.650967E1,2.5841813E0,1.29715805E1,1.3765875E2,4.766611E1,9.310345E-1,3.28E1,4.6055286E1,4.823015E0,2.3582494E0,1.280041E1,1.0736208E2,1.5020213E2,1.462067E2,7.2065115E0,8.224605E-1,3.3809467E1,1.0134388E2,8.733624E-1,-4.995862E-1,-9.92881E-1,3.420526E1,1.0540392E0,7.50699E1,1.8907121E0,7.2742593E-1,6.9557804E-1,4.131225E1,6.67966E-1,2.593312E3,2.7578908E-1,-1.3543304E0,-4.8915958E-1,1.5701796E-1,9.553121E-2,-3.6261082E-1,2.4712296E-1,9.987006E-1,-7.2024924E-1,-2.27059E-1,1.1856602E0,1.2513854E-1,-1.453061E0,9.178984E-3,-1.6178913E-1,-8.0324215E-1,-1.7771415E-1,-6.5067095E-1,3.364779E-2,-4.8029906E-1,6.360697E-1,1.7587192E-1,5.554997E-1,1.0929426E0,7.5943565E-1,-7.269516E-2,-1.5278053E-1,7.431158E-1,1.0117396E0,1.7977136E0],"split_indices":[1,18,2,12,1,12,7,0,2,0,10,3,7,0,7,1,2,1,12,3,1,10,4,0,9,0,0,3,9,0,0,2,0,0,1,4,0,0,0,12,11,0,0,5,9,5,8,0,0,0,0,0,0,0,0,0,0,0,0,0,0,0,0,0,0,0,0,0,0,0,0,0,0,0,0,0,0],"split_type":[0,0,0,0,0,0,0,0,0,0,0,0,0,0,0,0,0,0,0,0,0,0,0,0,0,0,0,0,0,0,0,0,0,0,0,0,0,0,0,0,0,0,0,0,0,0,0,0,0,0,0,0,0,0,0,0,0,0,0,0,0,0,0,0,0,0,0,0,0,0,0,0,0,0,0,0,0],"sum_hessian":[1.049E3,7.53E2,2.96E2,6.33E2,1.2E2,2.78E2,1.8E1,1.06E2,5.27E2,2E1,1E2,1.35E2,1.43E2,4E0,1.4E1,9.4E1,1.2E1,1.86E2,3.41E2,3.3E1,6.7E1,1.24E2,1.1E1,8E1,6.3E1,4E0,1E1,2.7E1,6.7E1,5E0,7E0,1.81E2,5E0,3E2,4.1E1,2.2E1,1.1E1,5.7E1,1E1,2.6E1,9.8E1,6E0,5E0,6.8E1,1.2E1,1.4E1,4.9E1,3E0,2.4E1,5.6E1,1.1E1,2E0,3E0,1E0,6E0,5.8E1,1.23E2,1.8E1,2.82E2,1.6E1,2.5E1,1E0,2.1E1,1E0,9E0,1.1E1,1.5E1,2.1E1,7.7E1,4.6E1,2.2E1,3E0,9E0,3E0,1.1E1,2.8E1,2.1E1],"tree_param":{"num_deleted":"0","num_feature":"21","num_nodes":"77","size_leaf_vector":"1"}},{"base_weights":[2.3518787E-1,-2.1847012E0,7.5963306E0,-1.0252464E0,-8.59635E0,6.18287E0,3.0270662E1,-4.639222E0,-6.367234E-2,-1.1472374E0,-7.913252E0,-2.0232153E0,7.2461433E0,4.0321384E1,2.1213162E0,-5.081292E0,6.154231E-1,-8.498459E0,3.3494684E-1,-7.1058316E0,-9.2953503E-1,5.9976405E-1,-3.435297E0,-5.2665453E0,7.686216E0,1.0034837E0,4.437173E0,-9.702744E0,-3.2560754E0,-1.2223364E1,-4.4063573E0,-8.4396213E-1,3.154236E0,-7.933056E-1,-5.6407595E0,-1.6304997E-1,1.5477508E-1,-4.805601E0,-2.2354863E0,5.756531E-1,-7.309887E0,6.5409117E0,1.21389675E1,2.872897E-1,-1.0481194E0,-5.027091E-1,-1.1062727E-1,-1.2903919E0,-2.3686257E-1,-7.2885895E-1,-2.3155223E-1,-5.119049E-1,1.7862211E-1,6.134257E-1,-1.9574818E-1,-5.73654E-1,-1.5273476E-1,2.3296356E-2,-2.678795E-2,-5.257032E-1,-8.2279205E-2,-1.09871924E-1,-2.890503E-1,6.745148E-3,7.9602815E-2,-7.924468E-1,-2.1184921E-1,4.4826135E-1,9.4172996E-1,1.599281E0,9.640875E-1],"categories":[],"categories_nodes":[],"categories_segments":[],"categories_sizes":[],"default_left":[0,0,0,0,0,0,0,0,0,0,0,0,0,0,0,0,0,0,0,0,0,0,0,0,0,0,0,0,0,0,0,0,0,0,0,0,0,0,0,0,0,0,0,0,0,0,0,0,0,0,0,0,0,0,0,0,0,0,0,0,0,0,0,0,0,0,0,0,0,0,0],"id":25,"left_children":[1,3,5,7,9,11,13,15,17,-1,19,21,23,25,-1,27,-1,29,31,33,-1,35,37,39,41,-1,-1,43,45,47,49,51,53,-1,55,57,-1,59,61,63,65,67,69,-1,-1,-1,-1,-1,-1,-1,-1,-1,-1,-1,-1,-1,-1,-1,-1,-1,-1,-1,-1,-1,-1,-1,-1,-1,-1,-1,-1],"loss_changes":[1.8720402E4,5.871494E3,8.1456523E3,2.3315005E3,1.469336E2,2.161087E3,5.1017285E2,7.040471E2,1.7882107E3,0E0,4.6657715E1,1.0947237E2,1.2408955E3,2.907627E2,0E0,1.1155876E3,0E0,3.1196423E2,1.6910944E3,3.766333E1,0E0,8.206874E0,2.0495132E1,9.970883E1,9.966494E2,0E0,0E0,4.021123E2,3.7136475E2,4.991577E1,6.146466E1,4.045834E3,2.2969614E3,0E0,2.2698364E0,3.530035E-1,0E0,1.0058273E1,5.759365E0,2.8229153E-1,2.3552246E0,9.642637E2,2.5016016E2,0E0,0E0,0E0,0E0,0E0,0E0,0E0,0E0,0E0,0E0,0E0,0E0,0E0,0E0,0E0,0E0,0E0,0E0,0E0,0E0,0E0,0E0,0E0,0E0,0E0,0E0,0E0,0E0],"parents":[2147483647,0,0,1,1,2,2,3,3,4,4,5,5,6,6,7,7,8,8,10,10,11,11,12,12,13,13,15,15,17,17,18,18,19,19,21,21,22,22,23,23,24,24,27,27,28,28,29,29,30,30,31,31,32,32,34,34,35,35,37,37,38,38,39,39,40,40,41,41,42,42],"right_children":[2,4,6,8,10,12,14,16,18,-1,20,22,24,26,-1,28,-1,30,32,34,-1,36,38,40,42,-1,-1,44,46,48,50,52,54,-1,56,58,-1,60,62,64,66,68,70,-1,-1,-1,-1,-1,-1,-1,-1,-1,-1,-1,-1,-1,-1,-1,-1,-1,-1,-1,-1,-1,-1,-1,-1,-1,-1,-1,-1],"split_conditions":[1.6190187E1,1E0,3.0271164E2,7.4040713E0,7.1680916E1,4.9127674E1,6.82019E-1,6.650967E1,6.1831318E1,-1.1472374E0,1.851976E2,1.0540392E0,6.734905E1,3.2769574E2,2.1213162E0,6.305446E-1,6.154231E-1,1.5667609E1,1.4853532E1,9.715283E2,-9.2953503E-1,1.622497E1,6.6603357E-1,1.412221E2,2.320175E2,1.0034837E0,4.437173E0,1.2400145E2,4.4699818E1,1.0367347E0,6.79296E-1,5.608485E-1,1E0,-7.933056E-1,1.5459018E2,1.5636031E1,1.5477508E-1,1.3546512E2,8.95954E-1,1.3000385E2,3.6655843E0,1.2413001E2,9.73913E-1,2.872897E-1,-1.0481194E0,-5.027091E-1,-1.1062727E-1,-1.2903919E0,-2.3686257E-1,-7.2885895E-1,-2.3155223E-1,-5.119049E-1,1.7862211E-1,6.134257E-1,-1.9574818E-1,-5.73654E-1,-1.5273476E-1,2.3296356E-2,-2.678795E-2,-5.257032E-1,-8.2279205E-2,-1.09871924E-1,-2.890503E-1,6.745148E-3,7.9602815E-2,-7.924468E-1,-2.1184921E-1,4.4826135E-1,9.4172996E-1,1.599281E0,9.640875E-1],"split_indices":[2,18,1,3,1,10,5,1,11,0,11,12,1,1,0,7,0,3,3,8,0,3,5,11,1,0,0,0,1,4,5,7,17,0,1,3,0,0,6,0,4,10,4,0,0,0,0,0,0,0,0,0,0,0,0,0,0,0,0,0,0,0,0,0,0,0,0,0,0,0,0],"split_type":[0,0,0,0,0,0,0,0,0,0,0,0,0,0,0,0,0,0,0,0,0,0,0,0,0,0,0,0,0,0,0,0,0,0,0,0,0,0,0,0,0,0,0,0,0,0,0,0,0,0,0,0,0,0,0,0,0,0,0,0,0,0,0,0,0,0,0,0,0,0,0],"sum_hessian":[1.049E3,7.9E2,2.59E2,6.7E2,1.2E2,2.45E2,1.4E1,1.4E2,5.3E2,2E1,1E2,2.8E1,2.17E2,5E0,9E0,1.35E2,5E0,2.3E1,5.07E2,6.7E1,3.3E1,1E1,1.8E1,7E0,2.1E2,1E0,4E0,3.7E1,9.8E1,1.1E1,1.2E1,3.58E2,1.49E2,4E1,2.7E1,6E0,4E0,7E0,1.1E1,2E0,5E0,1.69E2,4.1E1,2E0,3.5E1,5.3E1,4.5E1,1E1,1E0,4E0,8E0,1.36E2,2.22E2,9.4E1,5.5E1,2.6E1,1E0,1E0,5E0,6E0,1E0,5E0,6E0,1E0,1E0,4E0,1E0,1E2,6.9E1,1.4E1,2.7E1],"tree_param":{"num_deleted":"0","num_feature":"21","num_nodes":"71","size_leaf_vector":"1"}},{"base_weights":[2.1451205E-1,-1.9747742E0,6.8741693E0,-9.2743295E-1,-7.7664375E0,5.3984313E0,2.5308617E1,-4.0818744E0,-3.4713876E-2,-1.0114202E1,-7.0812774E0,-1.8503965E0,6.3555226E0,1.16375E0,2.8178413E1,1.0158279E0,-4.8405733E0,-2.2258744E0,1.3029414E0,-1.0293055E0,-2.910864E-1,-8.267894E-1,-6.27806E0,5.5354446E-1,-3.1447625E0,-4.8546324E0,6.7580624E0,4.0822E0,1.9869658E0,-5.1253304E0,1.9829195E0,-5.3087277E0,5.6413805E-1,-4.9641423E0,1.4298049E0,7.1789002E0,4.7945267E-1,-7.376786E-1,-5.279625E0,-1.4724077E-1,1.423935E-1,-1.2009557E0,-3.7531967E0,5.4686993E-1,-6.7462783E0,5.3947716E0,9.349149E0,-1.590908E-1,-6.097088E-1,-7.548729E-2,4.8045865E-1,-1.0235742E0,-3.8317677E-1,-6.893911E-1,2.5597355E-1,-5.921439E-1,2.58694E-1,-2.3105715E-1,9.6234745E-1,-3.7757018E-1,1.3498423E-1,-2.058314E-1,-5.5100983E-1,2.9519654E-3,-3.9276123E-2,-1.4254455E-1,-5.0131734E-2,-4.651377E-1,-2.1905343E-1,6.4079287E-3,7.562256E-2,-7.2905076E-1,-2.0125656E-1,4.5187908E-1,1.1791704E0,6.737635E-1,1.3258685E0],"categories":[],"categories_nodes":[],"categories_segments":[],"categories_sizes":[],"default_left":[0,0,0,0,0,0,0,0,0,0,0,0,0,0,0,0,0,0,0,0,0,0,0,0,0,0,0,0,0,0,0,0,0,0,0,0,0,0,0,0,0,0,0,0,0,0,0,0,0,0,0,0,0,0,0,0,0,0,0,0,0,0,0,0,0,0,0,0,0,0,0,0,0,0,0,0,0],"id":26,"left_children":[1,3,5,7,9,11,13,15,17,19,21,23,25,-1,27,29,31,33,35,-1,-1,-1,37,39,41,43,45,-1,-1,47,49,51,-1,53,55,57,59,-1,61,63,-1,65,67,69,71,73,75,-1,-1,-1,-1,-1,-1,-1,-1,-1,-1,-1,-1,-1,-1,-1,-1,-1,-1,-1,-1,-1,-1,-1,-1,-1,-1,-1,-1,-1,-1],"loss_changes":[1.5322467E4,4.790883E3,6.9365215E3,1.8894146E3,1.23018555E2,1.690706E3,4.1750684E2,5.773252E2,1.5387533E3,2.2468262E0,4.054541E1,9.197657E1,9.9849023E2,0E0,7.6466895E2,1.2894437E2,6.6297363E2,1.9991335E3,1.5740024E3,0E0,0E0,0E0,2.9067383E1,6.9191856E0,1.796347E1,8.543115E1,6.807705E2,0E0,0E0,6.0388947E-1,1.4267935E2,8.631277E2,0E0,1.6728513E3,7.4686725E2,9.5014404E2,1.0680419E3,0E0,1.5385803E1,3.153823E-1,0E0,2.277689E-1,9.460724E0,2.5476646E-1,7.84729E-1,7.200115E2,6.253545E2,0E0,0E0,0E0,0E0,0E0,0E0,0E0,0E0,0E0,0E0,0E0,0E0,0E0,0E0,0E0,0E0,0E0,0E0,0E0,0E0,0E0,0E0,0E0,0E0,0E0,0E0,0E0,0E0,0E0,0E0],"parents":[2147483647,0,0,1,1,2,2,3,3,4,4,5,5,6,6,7,7,8,8,9,9,10,10,11,11,12,12,14,14,15,15,16,16,17,17,18,18,22,22,23,23,24,24,25,25,26,26,29,29,30,30,31,31,33,33,34,34,35,35,36,36,38,38,39,39,41,41,42,42,43,43,44,44,45,45,46,46],"right_children":[2,4,6,8,10,12,14,16,18,20,22,24,26,-1,28,30,32,34,36,-1,-1,-1,38,40,42,44,46,-1,-1,48,50,52,-1,54,56,58,60,-1,62,64,-1,66,68,70,72,74,76,-1,-1,-1,-1,-1,-1,-1,-1,-1,-1,-1,-1,-1,-1,-1,-1,-1,-1,-1,-1,-1,-1,-1,-1,-1,-1,-1,-1,-1,-1],"split_conditions":[1.6190187E1,1E0,2.0503214E1,7.4315243E0,9.980336E0,4.9127674E1,4.21348E-1,1.3040752E2,6.9651455E-1,9.12186E1,6.57218E-1,1.0540392E0,6.734905E1,1.16375E0,4.3602479E-1,8.3954656E-1,6.650967E1,1.5053568E1,3.962474E1,-1.0293055E0,-2.910864E-1,-8.267894E-1,1.1925356E1,1.622497E1,1.4906958E1,1.412221E2,1.25191536E2,4.0822E0,1.9869658E0,1.1840153E2,7.5468793E0,7.4491584E-1,5.6413805E-1,1.6022063E2,5.2864483E1,1.3446218E1,7.299065E-1,-7.376786E-1,1.16540504E2,2.007178E2,1.423935E-1,1.749903E1,3.894744E-1,1.3000385E2,3.6655843E0,1.8459402E1,4.8501253E-1,-1.590908E-1,-6.097088E-1,-7.548729E-2,4.8045865E-1,-1.0235742E0,-3.8317677E-1,-6.893911E-1,2.5597355E-1,-5.921439E-1,2.58694E-1,-2.3105715E-1,9.6234745E-1,-3.7757018E-1,1.3498423E-1,-2.058314E-1,-5.5100983E-1,2.9519654E-3,-3.9276123E-2,-1.4254455E-1,-5.0131734E-2,-4.651377E-1,-2.1905343E-1,6.4079287E-3,7.562256E-2,-7.2905076E-1,-2.0125656E-1,4.5187908E-1,1.1791704E0,6.737635E-1,1.3258685E0],"split_indices":[2,18,2,3,3,10,7,0,5,1,7,12,1,0,7,6,1,3,0,0,0,0,3,3,3,11,10,0,0,0,2,5,0,9,10,3,5,0,1,1,0,2,7,0,4,2,7,0,0,0,0,0,0,0,0,0,0,0,0,0,0,0,0,0,0,0,0,0,0,0,0,0,0,0,0,0,0],"split_type":[0,0,0,0,0,0,0,0,0,0,0,0,0,0,0,0,0,0,0,0,0,0,0,0,0,0,0,0,0,0,0,0,0,0,0,0,0,0,0,0,0,0,0,0,0,0,0,0,0,0,0,0,0,0,0,0,0,0,0,0,0,0,0,0,0,0,0,0,0,0,0,0,0,0,0,0,0],"sum_hessian":[1.049E3,7.9E2,2.59E2,6.7E2,1.2E2,2.41E2,1.8E1,1.47E2,5.23E2,2.4E1,9.6E1,2.8E1,2.13E2,4E0,1.4E1,1.9E1,1.28E2,1.98E2,3.25E2,2.3E1,1E0,3.5E1,6.1E1,1E1,1.8E1,7E0,2.06E2,4E0,1E1,2E0,1.7E1,1.23E2,5E0,1.13E2,8.5E1,3.9E1,2.86E2,2.6E1,3.5E1,6E0,4E0,5E0,1.3E1,2E0,5E0,1.37E2,6.9E1,1E0,1E0,9E0,8E0,2.7E1,9.6E1,9E1,2.3E1,1.1E1,7.4E1,8E0,3.1E1,4.8E1,2.38E2,3E0,3.2E1,4E0,2E0,3E0,2E0,7E0,6E0,1E0,1E0,4E0,1E0,1.22E2,1.5E1,4.3E1,2.6E1],"tree_param":{"num_deleted":"0","num_feature":"21","num_nodes":"77","size_leaf_vector":"1"}},{"base_weights":[1.9698398E-1,-1.5640606E0,7.043664E0,-6.3987136E-1,-7.01989E0,5.6314235E0,2.5498114E1,-1.5924253E0,2.2266867E0,-6.4917855E0,-9.681167E0,-2.5927725E0,6.2610035E0,3.2932865E1,1.6882406E0,-5.5991616E0,-3.9139467E-1,-1.3007841E0,4.5039687E0,-5.1422358E0,-7.0201654E0,-2.614914E-1,-9.94301E-1,-5.655716E-1,-4.9572906E-1,7.3017917E0,3.3871618E-1,8.5396117E-1,3.557514E0,2.1623588E0,-6.9375553E0,-2.6921818E0,1.0775775E0,-4.690846E0,3.1701598E-1,-3.7427526E0,5.7586727E0,-3.7983696E0,-6.183618E-1,-7.3243695E-1,-4.6673636E0,-1.6214936E0,5.250295E-1,6.195847E0,1.0908329E1,-5.411441E0,3.6499271E0,-6.7737144E-1,6.807755E-1,-1.138944E0,-4.8585054E-1,-7.596594E-1,-2.0647915E-1,-4.075853E-1,2.0886879E-1,-6.997944E-2,-6.7727536E-1,1.8101661E-1,-3.9571047E-1,1.2033781E-1,-6.336156E-1,6.1046696E-1,-6.886795E-1,-2.538632E-1,-4.6360666E-1,-1.1259518E-1,-4.9089095E-1,-4.3965913E-2,-1.8070374E-1,-8.367818E-2,1.4151306E-1,4.0296865E-1,7.9785556E-1,1.5360093E0,8.3351487E-1,-6.019606E-1,3.351059E-2,7.0387095E-1,1.5444349E-1],"categories":[],"categories_nodes":[],"categories_segments":[],"categories_sizes":[],"default_left":[0,0,0,0,0,0,0,0,0,0,0,0,0,0,0,0,0,0,0,0,0,0,0,0,0,0,0,0,0,0,0,0,0,0,0,0,0,0,0,0,0,0,0,0,0,0,0,0,0,0,0,0,0,0,0,0,0,0,0,0,0,0,0,0,0,0,0,0,0,0,0,0,0,0,0,0,0,0,0],"id":27,"left_children":[1,3,5,7,9,11,13,15,17,19,21,23,25,27,-1,29,31,33,35,37,39,-1,-1,-1,41,43,45,-1,-1,47,49,51,53,55,57,59,61,63,-1,-1,65,67,69,71,73,75,77,-1,-1,-1,-1,-1,-1,-1,-1,-1,-1,-1,-1,-1,-1,-1,-1,-1,-1,-1,-1,-1,-1,-1,-1,-1,-1,-1,-1,-1,-1,-1,-1],"loss_changes":[1.2671189E4,4.2108027E3,5.4597676E3,1.9586206E3,1.07208984E2,1.0569697E3,4.0484863E2,2.5867793E3,1.4437739E3,3.8060547E1,7.3043213E0,9.354317E1,1.1501655E3,1.4737744E2,0E0,1.3031094E3,1.4055148E3,3.9088248E2,1.1493972E3,2.269513E1,1.7347412E1,0E0,0E0,0E0,1.23426695E1,5.6660645E2,5.719109E2,0E0,0E0,8.348342E2,9.2576807E2,4.8278564E2,1.3320276E3,1.8636752E2,3.1987628E2,2.0003445E2,4.5769482E2,6.170456E0,0E0,0E0,3.88237E0,3.0192947E-1,8.457054E0,4.466914E2,2.843584E2,4.046054E1,1.24695206E2,0E0,0E0,0E0,0E0,0E0,0E0,0E0,0E0,0E0,0E0,0E0,0E0,0E0,0E0,0E0,0E0,0E0,0E0,0E0,0E0,0E0,0E0,0E0,0E0,0E0,0E0,0E0,0E0,0E0,0E0,0E0,0E0],"parents":[2147483647,0,0,1,1,2,2,3,3,4,4,5,5,6,6,7,7,8,8,9,9,10,10,11,11,12,12,13,13,15,15,16,16,17,17,18,18,19,19,20,20,24,24,25,25,26,26,29,29,30,30,31,31,32,32,33,33,34,34,35,35,36,36,37,37,40,40,